solver_type L2R_L2LOSS_SVC_DUAL
nr_class 4
label 0 2 1 3
nr_feature 13068
bias -1
w
0.28838739192946505 -0.15904654176142297 -0.013821648023340526 0.10735156486376371 
-0.17465578926415887 0.046304558184614666 0.12331285847373552 -0.03776663075819682 
0.18349375079396665 0 0 -0.06996552947529712 
-0.054617595330223492 0.018104783591545659 -0.039483383854675182 -0.053924367624824748 
0.18349375079396665 0 0 -0.06996552947529712 
-0.024255921939710868 -0.055577757911399406 -0.1545863765975839 0.10479003918508298 
0.07656824572583984 -0.052426945415273193 -0.00033993203490386261 0.034240584149082827 
0.091317507634720074 0.25559722177337041 -0.052002879470037809 -0.21459570392129734 
-0.22229129179775164 0.24487324963922025 -0.35372527987166463 -0.046355739278110639 
-0.0095068289408041708 0.035276705601563631 -0.43413982901426806 -0.27577361298240233 
-0.17627384227909143 -0.17991743327861856 -0.36246457735482102 0.38945878864310157 
-0.32114487082876131 -0.034286505500489117 0.15325049040862662 0.018490905939063162 
0.033051339077263917 0.055022544267214285 -0.17288509487293427 -0.19051411852437566 
-0.29186464470240342 -0.30906414728509496 0.18150557536777709 -0.071045438720220094 
-0.080050170707328547 -0.02153684125706538 0.10128017708778089 -0.10716796305673673 
0.10580195864534298 -0.29902908538762607 0.056360749715381485 0.11238946195379099 
0.82539163651566883 -0.59858515907854082 -0.55105358759983802 -0.57776405126216956 
0.088019117894456739 -0.095749539058445757 -0.13944361738518618 -0.00047406154433159327 
0.1945175802782918 -0.26040250434161616 -0.22891767876782096 -0.052623889166121728 
0.18349375079396665 0 0 -0.06996552947529712 
0.075438634029902515 -0.10753396638123403 0.063567424581892573 0.080557742089131329 
-0.10468303149186838 0.0046680720566354139 0 0 
-0.12999184070569042 0.082593363580928419 -0.023958957885001676 -0.065109754907213657 
0.22124153150599346 -0.18202110576662034 0.41179726352477541 -0.16215437684773451 
0.16197900805571158 0.04906349813610518 -0.20325854097390966 0.11064327666610112 
0.084965822562678955 -0.11816703012964083 0.077249846449712944 -0.090783183390320668 
-0.10468303149186838 0.0046680720566354139 0 0 
-0.30992796711187692 0.6090630196107798 -0.0040819927789842135 -0.20312837531368858 
-0.06912261343681729 -0.092194620732981986 0.11129804383961028 0.050944750865140595 
-0.097906762153506327 0.024683627652783934 0.18733260784746913 -0.14079968670541196 
0.096829121351254391 0.08004125167764084 -0.26822226992571585 -0.009538974944747914 
-0.03660586076049907 0.19246607006651487 -0.24028422545291556 -0.090621476351750704 
-0.034456089783519231 0.055779494410348837 -0.16807004460055733 -0.13526768065381203 
-0.10468303149186838 0.0046680720566354139 0 0 
0.051257976385595642 -0.055965300562971367 -0.1470790964091383 -0.075691542081722601 
-0.17088128727930804 0.36067125289035651 -0.064058287740700298 -0.32629674609375525 
-0.13597726585151029 0.025061007602099547 0.13103826568391747 0.071637070292978597 
0.19172204953435412 -0.41132296464833046 -0.19904390646627185 0.26571966520102996 
-0.16355014343439148 -0.012782406179638651 0.091223714540751968 -0.021589957547338768 
-0.037508241386141353 -0.077981024750675795 0.072964356044310633 -0.077890557724582671 
0.17437987096593541 0.14786482788160105 -0.26075431628036488 0.17747306498247634 
-0.060343935862928189 0.02732539948144672 -0.098327827608189922 0.018585727100055099 
0.080388435624607027 -0.25674042869045893 -0.085932345115165024 0.32544506235602289 
-0.13788753174014629 0.29221808617434647 -0.3121703210974216 0.27695701705519454 
-0.007584336661329379 0.027993718796582773 -0.017300371445724307 -0.18605576849529723 
0.086217736828576891 -0.12808043316755213 -0.035575683807891341 0.0025153378957241653 
0.048401354495258744 -0.16854742067523584 0 0 
0.00064415898453565323 -0.072269051834387588 0 0 
-0.16774416909176959 0.26507212680416931 0.033417173301272557 -0.10751836842616018 
0.048401354495258744 -0.16854742067523584 0 0 
-0.00082657012401695512 -0.16854742067523584 -0.007027261027503862 0.098014359017164474 
0.080156790915834095 -0.038027285337088768 -0.42269135502330973 0.11505101509457882 
-0.19446306986464515 0.06479253742733497 -0.048205475352618259 -0.031927769422065835 
0.43043876186481161 0.037418754195740062 0.018731468516613434 -0.39572549530774986 
-0.20582274115571519 0.24123448998208116 -0.11127734314302914 -0.091098962047860235 
0.048401354495258744 -0.16854742067523584 0 0 
0.28943292756982497 -0.03464785332393798 -0.080597650657001155 -0.24980326436142358 
0.048401354495258744 -0.16854742067523584 0 0 
-0.081158907304829761 -0.014613731431713212 -0.22716523261698685 -0.028848720247527295 
0.048401354495258744 -0.16854742067523584 0 0 
0.10201896534707067 0.2735209758670083 -0.021145469410369516 -0.39927480281271982 
0.2293644884309908 -0.18870636021448214 0.02840246297082951 -0.058900994867205937 
-0.033484331606734821 0.015403087307204256 -0.10059301779059533 -0.026662494709638905 
-0.10611894390838061 -0.034444020862523163 -0.0306384402553595 0.0063195779213179575 
0.40786606613938919 -0.28800648718433658 0.047900540472194761 -0.031853798748087192 
0.14498637488743854 -0.072074791755825623 0.054745976255633391 -0.23333545388152629 
0.22936448843099078 -0.052762820087572243 -0.021145469410369516 -0.0096094732972067508 
0.18057159403672851 -0.35915338602269808 0.53598521665486809 0.015461002511640426 
-0.0054250022222768713 0.15251951166722244 0.039550268749127919 -0.061711918663107594 
0.05784731148721807 -0.11583584537879647 -0.070067346521330676 0.18013674902879276 
-0.26827196503313927 -0.11751575285636884 0.42431976265914939 0.045168060501981432 
-0.21427253498254001 -0.089474380058543468 0.22011596145214601 0.043277875015761781 
0.23356044751526109 0.02405346320483507 -1.016570686847265 0.033859570925300453 
-0.008110660052629344 0.037831672771979387 -0.13193760213380198 -0.028824428214282598 
0.034685339233912593 -0.16279816487599483 0.28551443633921603 0.028154161099643582 
-0.18919728165854346 -0.0260744712797671 0.0055197208631648127 0.083706171752202921 
0.52179052086034394 -0.24142941721055378 -0.07183714973601521 -0.027601271328308381 
-0.76489711737753341 0.46488854369508426 0.23128942388562684 -0.0059702557610864376 
0.1254542157166989 0.055161050275345916 0.059991550203690409 0.028473380519703544 
0.0050821736698743519 -0.083282783549467096 0.034614374062047717 0.043426711825592906 
-0.11797095021568343 0.12256583302644697 -0.0033911571095663687 -0.16106364596995976 
-0.12595038765356173 0.12489744361600835 -0.038397820875453875 -0.14503962459584413 
0 0 -0.0029024202208877657 0 
-0.23777977329157099 0.22515172038244025 0.17200617175269808 -0.095118441983080726 
-0.061907298591256092 -0.16547586633042541 -0.040004677175269704 0.20753443261621318 
-0.014776297879220848 0.091787189790275017 -0.081590346710508563 -0.038342998223926471 
0.034452616349741338 -0.19031564546000185 0.066723284780091416 -0.018364283520632275 
0 0 -0.0029024202208877657 0 
0 0 -0.0029024202208877657 0 
0 0 -0.0029024202208877657 0 
-0.0631640983548796 0.10630945325291341 0.27030956038171522 -0.16586389104658855 
-0.26026643612310901 0.44274104469781911 -0.096500172675133694 -0.38643127066552024 
0.026226059850256195 -0.094353367276644035 -0.0023654869664045666 -0.024622811638301607 
-0.40384644021694793 -0.019240084934316341 0.044206777773743385 0.19652189013102289 
0.16651138735660004 -0.1039276750190154 0.10817122390209623 -0.33479506828378031 
0.048696886737415603 -0.10049951128898715 -0.087355086345576274 -0.1793867301620268 
-0.10741793921044693 0.041256262620498474 0.054020881444285955 0 
-0.23272374720886987 -0.1260919514359386 0.46543962448529275 -0.29022086173637551 
-0.2405917614226401 6.9388939039072284e-18 0.1772043860880978 0.065025230592677508 
-0.099721757444386036 0 0.059829270597724422 0 
-0.19944351488877207 0 0.11965854119544884 0 
-0.16165451896843933 -0.40944723781115572 0.24136805127410793 0.31348900805688074 
0.13550624444069218 -0.11166275261436474 0.010944406158199266 -0.095260149591425564 
-0.1813523182357536 0.11950397438081435 0.039491986567346191 -7.8062556418956319e-18 
-0.2403721717288986 0.28303497470058347 0.05602638807206943 -0.049125837021102139 
0.30897661376649921 -0.15167579220983493 -0.044850528963573631 -0.19519525445674923 
-0.099721757444386036 -0.030445492133935367 0.059829270597724422 0 
-0.064983101529866499 -0.055955355560121711 -0.074890005117822456 0.11941564944631528 
-0.31232739301802581 -0.038967243945063179 0.32278701059687614 0.025521168813429213 
-0.099721757444386036 0 0.059829270597724422 0 
0.11141635361751939 -0.090822637322192243 0.14231319893946565 0.042366043265657308 
0.098737057488721122 -0.21136906836144551 0 0 
0.098737057488721122 -0.21136906836144551 0 0 
-0.022251703749566559 0.37089570544395756 -0.018082602834919068 -0.11524087987368138 
0.098737057488721122 -0.21136906836144551 0 0 
-0.014928424074105402 -0.00082358413924362318 -0.091015373902169724 -0.11278159057845485 
0.067759889383348273 0.34395486915348022 -0.028747520405065684 -0.21385890281584463 
0.21119667234135592 -0.26157886842626416 0 -2.6020852139652106e-18 
0.072499029139017818 -0.098082579881933543 0 -0.047914544613588891 
-0.12896263516244594 0.18107873834541705 -0.1292014662813675 -0.36859371198653612 
0.098737057488721136 -0.45240829948729705 -0.009035376453588059 0.27567559363859589 
0.098737057488721122 -0.21136906836144551 0 0 
-0.083325299347294546 0.0011541261830529002 -0.11081883650622502 0.063568941259534467 
-0.17181207619688568 0.22011886154543198 0.070592165804232498 -0.32188031514890408 
-0.16855181972680394 -0.059699328485692288 -0.14466577691377489 0.17982555914308024 
-0.58231062496243169 0.5819658185175085 -0.086294336827606635 0.08618419642845665 
-0.082821184045285393 -0.55653723848751913 -0.22519251656688441 0.67398346296123057 
-0.12158250346086696 -0.22668798622455824 0.15978560666356906 -0.13856072170884975 
-0.20594057210993905 0.17644426867720772 -0.015830092830063387 0.085078242238806515 
-0.17044571834790673 0.024589173121751091 0.10532963224687711 -0.029709053866971549 
-0.10844642939806716 0.46501746756658935 -0.022830327478625304 -0.24842136843490703 
0.10004780163191081 0.16197987278281178 0 -0.08803740049520789 
0 0.19598270679004573 0 -0.088037400495207876 
0 0.19598270679004573 0 -0.088037400495207876 
0.14523073804743414 -0.12495139486542936 0.030235933353450643 -0.25623428298507545 
0 0.19598270679004573 0 -0.088037400495207876 
0.14169346675265471 -0.53544047976161524 0.3301195392283392 0.076049203357579559 
0.060326903673090029 -0.07057803118394293 -0.23175586884282223 -0.16116117414422221 
-0.061923535484208314 0.030774179498790001 -0.073079921012413229 0.062976086061323655 
0.56349023759616124 -0.11623330404477852 -0.091009505933195151 -0.23703475810389071 
-0.11112542171381873 -0.33844769993892621 0.24152391870647644 0 
0.25085420894359406 0.12806167360763396 -0.11430815714006853 -0.076476115750992904 
0.098847014757780655 -0.24321734444078622 -0.3129336516515398 0.011436495423199119 
-0.48459323873897181 0.4642030638721516 0 -0.18177209584127618 
0 -0.33844769993892621 0 0 
-0.33443979296685022 -1.1131894441896431 0.4408786239676441 0.2189334513194636 
0.086242113920074442 -0.14500407401671875 0.10331686461537003 0.17370586648666467 
-0.16172235779672889 0.32210064203067068 0 -0.15220193897488962 
-0.45491405311464156 0.37122225443133061 -0.050591882193183391 0.14938479277816283 
-0.40976588271057113 0.098686107689656341 0.12348327327489061 0.12064756895638963 
0.026302942681342565 0.13076707649001845 0.063688395325605565 -0.11962562532811505 
-0.22224981337651489 0.53392323786214257 -0.0019438778017011435 -0.1142738087681459 
-0.10442131304298188 0.2893776069179067 0 -0.086945778584330433 
-0.10442131304298188 0.2893776069179067 0 -0.086945778584330433 
-0.10442131304298188 0.2893776069179067 0 -0.086945778584330433 
0.24936022077863587 0.0064266421810418219 0 -0.0624817844433221 
0.50774129538407242 -0.20619754385255318 -0.086441800017281203 -0.2436201133996739 
0.013073221824045798 -0.078180549980925815 0 -0.035639521084287008 
-0.48008204981015612 -0.044569771367460626 0.30981660508878817 0.38826214754442401 
0.030595675515795007 0.08403793091588535 -0.13433286210879941 0.045146235638221573 
0 -0.069990815094337744 0 0 
-0.085221386705591026 0.28636209955539349 0.094167494393340212 -0.16208193634874665 
0 0.041065333518650562 0 -0.038948042885457779 
0.071307013112294551 -0.31822849110319312 -0.19458337939479936 0.15166021833166957 
0.1932446870461442 0.048547209160411664 -0.24253726529327116 0.16861421903523649 
0 0 0 0 
0.17755925018490748 -0.32659064596378629 0.29133885174763241 -0.044081940250668764 
0 0 0 0 
0 0 0 0 
0.043696335252151393 -0.40882990236968214 0.3670993811179673 -0.28804012484622288 
0.50336189631801964 -0.045991866535928988 -0.080925685774425313 -0.28913470102333688 
0.32894231497767518 -0.13683184717243685 -0.066823538683233416 -0.12671691781507938 
0 0 -0.0046411599464048518 -0.01752144252327939 
0 0 -0.0046411599464048518 -0.16041509181748353 
-0.051534176778046469 0.060140951956736743 0.037140558306124206 -0.14421896805500986 
0 0 -0.0046411599464048518 -0.01752144252327939 
0 0 -0.0046411599464048518 -0.01752144252327939 
0 0 -0.0046411599464048518 -0.01752144252327939 
0.073173552886754242 -0.17065593324891914 -0.010509693242704985 0.1008368215749553 
0.16633332294863623 -0.30040371453407277 -0.0046411599464048518 -0.01752144252327939 
-0.39030182071234165 -0.1623541850011089 -0.0046411599464048518 0.5047951105135684 
0 0 -0.0046411599464048518 -0.01752144252327939 
0.1263686960898876 -0.14666448412499983 0.20756567933385583 0.15942721092447448 
-0.16843515352955196 0.073309006161418735 0.15908008205829155 0.30360251023383955 
-0.22264833843634735 -0.23732261820595218 -0.062183743575127334 0.47239141351995367 
0.43655969103389614 -0.3545870330875609 -0.010001900711415136 -0.20921660580782581 
-0.14058505215642614 -0.046510293841159601 -0.10410030738786641 0.12097802484390802 
0.076283148257075023 0.008358965156863853 -0.0038989282901897835 -0.23676229511660216 
-0.0850437778434978 0.067930525803716765 0 0.17250528412575455 
0.013073221824045791 -0.0081897348865881247 0 -0.035639521084287008 
0.013073221824045791 -0.0081897348865881247 0 -0.035639521084287008 
-0.060827818555024421 -0.11019911248311839 0 0.065528290970828434 
-0.27302405212818115 -0.3396982804748801 0.13028472658668325 0.55795299032844503 
-0.27020359107028935 0.14279254337622044 0.17290543348225448 0.15001403286482135 
0.38778326075443936 -0.18537190999218564 -0.093096757036735839 -0.12452727923602584 
0.15860063434692581 -0.25620692226337799 -0.093096757036735839 0.186022427656101 
0.10812721893441622 -0.16516725576498073 -0.093096757036735839 0.11725643769719786 
0.4177363668689148 -0.075368741074418141 -0.30054329749124253 -0.27504066165755692 
-0.042483171511760023 0.13178651518021475 -0.098187228669034468 -0.07888694805735573 
0.20880697529806697 -0.27079269580310861 0.067187896282881729 -0.1865625713989007 
0 0 0 -0.074514546771114257 
0.17463507855211105 -0.05600983006414683 -0.4844052883327864 -0.33305783721333204 
-0.10649731731844428 0.21760582164048736 -0.68786656108538247 -0.56692413764103455 
-0.1234445911355449 -0.11831783152974834 0.27497073155223095 0.13196531077203194 
0.085388987368160557 -0.18877965795566351 4.3368086899420177e-19 0.13724180278498249 
0.073052428896967725 -0.15462223154547655 0 0 
-0.10393559213661863 0.038320466448323112 -0.41392984498551161 0.20832846912399614 
0.10609377733169024 -0.027551412434152101 -1.7347234759768071e-18 -0.097106454501583658 
0.063491157177009122 -0.027551412434152101 0 0 
0.47383742644925386 -0.29143888924625855 -0.19718686909320049 -0.38843444929231319 
0.063491157177009108 -0.027551412434152101 0 0 
-0.11985476957840878 0.01535122388860969 -0.24228469915670192 0.059343727914352273 
-0.21707747343040446 0.28573507970094014 -0.16112465163515974 -0.24500413034728885 
0 -0.32766956455305912 0 0 
0.14952691522356809 -0.52839757426779177 -0.26982260339984843 0.2516767707783884 
-0.15303935139126706 0.028454221039428733 0.063909594166959849 0.13076955789306446 
-0.017619999769298358 0.027135524005706919 0.042475615925323763 -0.46851516855120534 
-0.034897431234269014 0.21653477501024995 -0.028419608618731253 -0.14695733061787875 
0 0 0 0 
0.67697430722904861 -0.72058607425413146 -0.33343132324292435 -0.43196649467897619 
0.098959037399232175 -0.1251719198779021 0 -0.29508665035779807 
0.049479518699616108 -0.26722624291113994 0 -0.028316370397935619 
0.023040277907216966 0.20824636144988135 0.022651655082752527 0.10094848913673241 
0.38884482678904275 -0.30871919043552887 -0.16044211370460454 0.004911462595472222 
0.049479518699616108 -0.22467606164415865 0 0 
0.28084209241789593 -0.061484333599395632 -0.19908906981239832 -0.23341446408950697 
-0.066627528872438557 0.11898850922466481 -0.14811117875644653 0.00056568823352200854 
-0.18504758581242048 0.18691333055401929 0.019086132618240732 -0.31766878811145977 
-0.12448477330588743 -0.14162705647954688 0.18186733727695464 0.53194272516248153 
0.040003663918354117 -0.040620124411011468 -0.13605679612570093 0.091757169431999491 
0.0037966098901339521 -0.11630511474905628 -0.21430492648564545 0.036227699289856308 
-0.21478812794081978 0.12718953327900248 -0.092045231673132985 0.047866104526826325 
-0.48000304879512601 0.8768889108936625 -0.084098444667038599 -0.21723249590486945 
0 0.052332210934878852 0 0 
-0.094221513987958458 -0.15132019386092505 0.093760684458662091 0.43402477296423531 
-0.1169363424676248 0.22810540480530317 0 -0.10700649143157195 
-0.15312638643481091 0.13341397615050196 -0.24237339533602259 0.21047968689432076 
-0.3949740280573657 0.49113432236577509 0.03810717880148555 -0.19986243117963803 
0.12705280201116229 0.094134427548867111 -0.58869249238971266 -0.033166979605678611 
-0.1169363424676248 0.22810540480530317 0 -0.10700649143157195 
0.6009995880172454 -0.46687164292919486 -0.2155733736765357 -0.09677590854651022 
-0.1169363424676248 0.22810540480530317 0 -0.10700649143157195 
-0.085557474423258922 -0.28137911708216595 -0.2018021686402019 0.17087975995404273 
-0.14484003888856026 0.22531702726939373 -0.23740356900307263 -0.073820429757926839 
-0.29256652349097279 -0.13220935929167169 -0.052828805427245412 0.55265271828191664 
0.18490094997308865 0.044599865844668171 -0.032674472628620783 -0.25165182416673904 
0.0077616432900039639 -0.2083155637436678 0.071674615854534579 -0.36368452063785872 
0.1509184869133324 -0.12610989277020188 -3.4694469519536142e-18 -0.11058471615829943 
0.24959163901615763 -0.19637696267194971 0 -0.17017456998694946 
0.24959163901615763 -0.19637696267194971 0 -0.17017456998694946 
0 0 0 0 
0 0 0 0 
-0.11790929149839073 0.31911275403079908 -0.10016555374295909 -0.23330045454600129 
-0.046770945902711622 0.22619817217381316 -0.06346526599641808 -0.13790314234791548 
0 0 0 0 
-0.25199655762593243 -0.036308992679570759 -0.12233949881996001 0.3137750751790318 
0.010217712674277821 -0.25537003489907562 0.16604853715446788 0.25597403991696982 
-0.015431993930154632 0 -0.029719005210608298 0.12496375929432499 
-0.015431993930154632 0 -0.029719005210608298 0.12496375929432499 
-0.015431993930154632 0 -0.029719005210608298 0.12496375929432499 
-0.55060740201061464 -0.037973145402507555 -0.03325120598049254 0.26889254837730581 
-0.41238121150099422 -0.17328409386438848 0.45377528689710772 0.24592420336076551 
-0.27484553311173532 0.18981405880460525 -0.10990100055628019 -0.071569459859483583 
0.027508218553129168 -0.0044390482587813663 -0.086225135922071872 0.010080846214157096 
-0.27992404479824939 0.08585179946093989 -0.011313027278636957 -0.022878034821181562 
0.24111089055703336 0.04493055283667937 -0.22629139497141115 -0.012779874720085719 
-0.015431993930154632 0 -0.029719005210608298 0.12496375929432499 
-0.055129694017039793 0 -0.076389745053751734 0.12496375929432499 
0.43072205959933879 -0.52183509525155225 0.19945505664542737 -0.13283494111590632 
-0.015431993930154632 0 -0.029719005210608298 0.12496375929432499 
-0.015431993930154632 0 -0.029719005210608298 0.12496375929432499 
-0.015431993930154632 0 -0.029719005210608298 0.12496375929432499 
0.080401161708299723 -0.091807281950350289 0.38710125032805953 -0.13230901615604437 
-0.066774551364650811 -0.056256923821006957 -0.029719005210608298 0.30465463579449409 
-0.015431993930154632 0 -0.029719005210608298 0.12496375929432499 
0.23941226733623644 -0.73499231087209138 -0.071095892510942671 0.47023604433711058 
0.15814966263951702 -0.28065341869619742 -0.13559417786120542 0.22325075842480441 
-0.076999649631719846 0.15054257024337178 -0.012512967059629385 -0.14509189681137546 
-0.096648788786948131 -0.18084988385294534 0.40112524243789699 -0.070996235351780526 
-0.00027138273339148353 0.096984963829042453 -0.1188707822999603 -0.32443012701375429 
0.21083916018580917 -0.60094808106637765 0.4615985486956331 -0.2960423263565839 
-0.15904350698365174 -0.22164665211602119 0.024792106288962886 0.27793908954137625 
-0.12525754481757961 0.021767207824274167 0.065170763795239672 -0.032069881482353645 
0.31051355550921034 -0.16722244947937048 -0.084853275700005448 0.059601052905086278 
0.13941211012475369 0.039892090728000359 -0.25646848382106646 -0.089718135784414038 
0.040910294518049686 -0.031650669880571074 0 0 
0 0 0 0 
-0.031006303899912522 0.061597316988225036 -0.025556570599127193 -0.22348664765685478 
-0.22709652541263042 -0.20714692266498572 -0.0097655288188240996 0.31093651023140012 
0.069557518224227843 -0.096912900399349855 0 0 
0.047564358323821852 -0.00010803571149221912 0.11776045380776791 0.32522141043295877 
-0.11245733787902454 0.20881428899569704 -0.053693823179855237 -0.28878290600991907 
0.13882829363911403 0 0 0 
0.26677440342061132 -0.12976253299203611 1.7347234759768071e-18 -0.079898113645004459 
-0.0089085695301766923 0.20965303606671992 -0.063962356980908644 -0.052895084295673689 
0.030289673953716699 -0.2043975334004908 0.058555185339227517 0.39039620819508708 
-0.87088552998714608 0.064426924729848165 0.49532038810316376 -0.31742844969173994 
0.49392695445855267 -0.39503299892458954 -0.17808033955149635 -0.21048544788703191 
0.13882829363911403 0 0 0 
0.13381344861830083 0 0 -0.28887521751329753 
-0.024608448703894479 -0.0064321078198591661 0 -0.11727396338914035 
0 0 0 -0.079898113645004445 
-0.046512323339916097 -0.38573972967168008 0 0.5070454615354516 
0.1431957091250578 -0.62710347516589227 -0.067135864635790757 0.3415832670464356 
0.021184861322386141 -0.043275019307866827 0.13106055650695017 -0.009120756138740211 
-0.35906610659107741 -0.043531153320900802 -0.21111824889879796 0.25249104963360908 
0.20929583398554064 -0.37191076148971025 0.047260217833747509 -0.39361279980341696 
-0.10441104093275104 0.2954252712383808 -0.011196875518691462 0.15210319758277546 
-0.19485263705288508 -0.030514073694102126 -0.19007238868944618 0.48849269167242648 
0.047742847463591025 -0.047566076221822892 -0.21217550188413284 0.17955698806367801 
0.34496439547182184 -0.25061980261548694 -0.020058926625701183 0.05587157172261302 
-6.9388939039072284e-18 0.16972102094021801 4.3368086899420177e-19 -0.28597675827087421 
-0.08397308089399011 0.25912307388620104 6.9388939039072284e-18 -0.078613559806207184 
-0.019138944769200555 0.018756439539685643 -0.041132645006547626 -0.16342699517807321 
-0.055658616614747337 0.039214457109783322 -0.025299668106133148 0.20070255466220921 
-0.030342282373223405 -0.004025978826859275 -0.025299668106133148 0.10689425718625764 
-0.20312854682904083 -0.49620256785745687 -0.16222529721498449 0.55673364932915792 
-0.40155531223172103 0.31173777025546939 -0.18040267235624111 -0.18454633384793651 
0.14130978940845346 -0.17362288607147772 0.40857412707258689 -0.50905900513880376 
0 0 0 0 
0.48713649204076004 0.049253557879125151 -0.45201196547945666 -0.67190132738385011 
-0.19286949497501241 0.33760745673349041 -0.17260647279909383 -0.19179652648321241 
0.019021066365248446 0.17002385634082137 -0.077498182000028143 0.01709507548636402 
-0.32653363746380548 0.12932128462113868 0 0 
-0.019843701480706077 0.1293212846211387 0 -0.045949703946343456 
0.32892573546228876 -0.096376969139012378 -0.41001551313392171 -0.17078752423889371 
-0.32004467020052801 0.27542199587529842 -0.28184091582963683 -0.036518857483737982 
-0.034503434586301542 0.34079129028333022 -0.11444665580962349 -0.26335422928513508 
0.092123915211705432 0.04168228147996491 -0.21027163215465261 -0.01994430642516053 
-0.32653363746380548 -0.17125976737754833 0.41045798888367652 -0.056151020412208347 
-0.26865383658205061 0.084598023779645731 0 0 
0.69467317100927661 -0.6636627016625507 -0.15727128064464246 -0.43883704138692914 
0.58623781009355791 -0.73250044134832393 0 -0.057960289206438129 
0.22687479252348325 -0.16922799574126132 0 0 
0.06839277860960799 -0.26091896201661446 -0.069311800319391575 0.36435852351090614 
-0.067347164417864841 -0.22141380305280933 0.3441463070769063 -0.013119099236048766 
0.23764355630399012 0.18653503841442315 -0.32563983198143742 -0.40936553269067444 
-0.090089425026675496 0.14296859371971316 0.21081556274335184 -0.14342556295326978 
-0.099024767023478386 0.13260426912399181 -0.086614663314992707 0.018174490509459771 
-0.34737047479124961 0.22435432272955222 -0.11338248749968674 -0.20162358181984347 
0.11606874674071885 -0.24036831487509247 0.087558870919754603 0.053321247483565246 
-0.061832300317968956 -0.061296407964011271 0.35945713688411829 -0.087908844807185429 
0.24011932802045274 -0.14044949119556924 -0.01189598804052778 -0.27940718179247326 
-0.2565264455551089 0.27755030414801529 0 0 
0.00078519175195110313 0.27027511280543592 -0.082051455361090944 -0.39574965599774981 
0.070585878765434124 0.14861346601332598 -0.013094574137342996 0.044648645308332367 
-0.095151852567414624 0.055487949651755492 -0.13135792065869237 -0.00060134166432552517 
0.0093315624760437286 -0.31158768355752081 0.2912409863576787 0.27513989537607425 
-0.041927728672056824 0.27112954146744567 -0.26838371387065124 -0.32185068415722434 
0.13577854271499823 -0.054137609180187923 0.18243019013858977 -0.1807926502883006 
-0.17728857880168403 0.41022318644543188 -3.6862873864507151e-18 -0.051885929999289496 
-0.13673329937658202 0.0071746248434481092 -0.18589737752677427 0.28330263674163297 
0.13181223849659085 -0.42618271979017486 0.2571223628869011 -0.019413101951788907 
0.015125913182891904 0.19469271424801807 0.33707141298734078 -0.41184863175328901 
-0.2565264455551089 0.27755030414801529 0 0 
0.14581258689168208 -0.32583624986559784 -0.031811968329466409 0.16861095563142439 
0.28590423389852326 -0.031120415724475728 1.7347234759768071e-18 -0.35931553640442893 
0.09942520592009732 -0.038240075641112523 -0.18639192850201142 -0.00062212748906825821 
0.19304440002045892 0 0 -0.27940718179247331 
0.1807616767769151 -0.60538574098800257 -0.16401541995113708 0.77041145876002892 
0.19304440002045892 0 0 -0.27940718179247331 
0.19304440002045892 0 0 -0.27940718179247331 
-0.07415234623469863 -0.42311742796341562 -0.014286533694404488 0.50485091803071402 
-0.38295452075119546 0.1023301438535798 0.17226120487634833 -0.03255422875450744 
-0.12939210733645884 0.067922328399424872 0.18350737684917909 -0.036978506765964578 
0.083093153446702303 -0.129356539242035 -0.36412550254295706 0.25704116613501837 
-0.022745298705028835 -0.16309902502325402 0.083433670980349595 0.15284767805574362 
-0.18142938895291275 -0.065113259753690561 0 0.38508140476099861 
-0.18142938895291275 -0.065113259753690561 0 0.38508140476099861 
-0.18142938895291275 -0.18878253470915224 -0.001102083298841565 0.44900058123030184 
-0.18142938895291275 -0.065113259753690561 0 0.38508140476099861 
-0.32322302589823576 0.27151973090616571 -0.17592922585274329 0.1849553454003888 
0.069637011757106293 0 0 0 
0.038493868303642577 -0.14746681515779594 -0.17830625069951919 -0.20943816618777605 
0.069637011757106293 0 0 0 
0.069637011757106293 0 0 0 
0.069637011757106293 0 0 0 
-0.37786433993492263 0.68804657292200377 -0.038699723220011362 -0.18278323914888439 
0.29959885872286751 0 0 -0.25186279179863241 
-0.33865084844598459 -0.31711068681154198 0.31785685428649729 0.21177325076055181 
0.29959885872286751 0 0 -0.25186279179863241 
0.29959885872286751 0 0 -0.25186279179863241 
-0.41834257398175378 0.23537976483673165 0.20402749938154435 0.18017168469658199 
0.29959885872286751 -0.088304899833467135 0 -0.25186279179863241 
-0.31237649768357678 0.47415273768155725 -0.047151935287597722 1.0842021724855044e-19 
0.28829003675545023 -0.41354638107431307 -0.092486351238626419 0.1187787823206651 
0.069557518224227857 -0.096912900399349855 0 0 
0.069557518224227857 -0.096912900399349855 0 0 
-0.26469749567744727 -0.10693085879223072 -0.041129760936196538 0.5632222367131382 
-0.054910250320689344 0.31700373706445317 -0.016890131343737409 -0.22910555336747512 
0.069557518224227857 -0.096912900399349855 0 0 
-0.18687862207542802 -0.27712427659107602 0.055465405766825113 0.29827348576043472 
-0.31123540635432656 0.075491554002334454 0.022940240737579675 0.10684156793757323 
-0.24873105190810638 0.37419206874191263 0.32431431031330343 -0.42237284477631354 
-0.041173288110414916 0 0 0 
-0.065045566728934787 0.34190355676008977 -0.014286533694404484 -0.41439203116392176 
0.21311296425148987 -0.21583005924120363 -0.08924550462002323 -0.14114210338879721 
-0.25733696359898295 0.090859232110242216 -0.056637947950281049 0.0097843061270352378 
-0.030475712528631946 -0.076465791652307602 -0.064336180097477269 0.42064324376578988 
0 0 0 0 
0 0 0 0 
0 -0.046786280029785576 0 0 
-0.2137094449716449 0.33939968851487123 -0.089579607443526471 -0.11004255368705461 
0.293866088120596 -0.20908124313353446 -0.23792572143657331 0.061259124202521789 
0.28926340082737456 -0.24018986919030755 -0.094034160093935545 0.026876857785087006 
-0.060951843502212888 0.20183811868573714 0 -0.11004255368705461 
-0.21193094020079489 -0.12475605960145658 0.22769172780595331 0.24101095438072936 
-0.060951843502212888 0.20183811868573714 0 -0.11004255368705461 
-0.060951843502212888 0.20183811868573714 0 -0.11004255368705461 
0.4517582483158436 -0.23519881212713759 -0.065942059263239372 -0.036067464348973378 
-0.060951843502212888 0.20183811868573714 0 -0.11004255368705461 
-0.46356310735606221 0.28479430546209611 -0.43086065085844061 0.36846174532386022 
0.083444661469541923 0.12265236964686738 -0.067067227760355189 -0.15776014005857458 
7.8062556418956319e-18 -0.019138278040859165 0.33399983467239119 -0.13318253355143234 
0 -0.080337867307607072 0 0 
0.2225006951715483 -0.12091737770821015 0 -0.17484918794934132 
0.17957768078846564 -0.11938630222513455 0.045550506707889189 -0.17042051815554621 
-0.0040782295546970809 -0.27195626843646314 0 0.28247975095889083 
-0.13617753914466646 -0.037412162525815362 0.022909504336400814 0.23626452273307688 
-0.030453277217149056 -0.14925789232511133 0.070782903843879391 0.26826103308186233 
-0.047757195510723091 -0.064397365774365875 0 -0.029424572556137226 
0 -0.12366927495546137 -0.001102083298841565 0.063919176469303299 
0 0.038111085029473135 0 -1.0842021724855044e-18 
-0.4392856243074138 0.53037271503112993 0 -0.08227366071649389 
-0.23581336733945946 -0.17253590077118655 -0.048860673610866379 0.11252257375864939 
-0.22949852298098275 0.16060305397182106 -0.41203683106697242 0.41176286557538894 
-0.1729458427562891 -0.047014959858940233 -0.084743304208315454 0.44852730666013824 
-0.032768617359015872 0.63833988646222006 -0.013634957878123591 -0.19435072637845655 
-0.26564878298697947 0.46333860319096931 0 -0.089533788487552571 
0.20892540242986549 -0.23098730848910615 -0.0067004708851882699 -0.2465939074176747 
-0.021540867734411974 0.096055126710376346 0 -0.055167917880846913 
-0.24639905125049724 0.35171863340886234 0 -0.10486835874253826 
0.051575778699974956 0.4825604700990675 1.7347234759768071e-18 -0.42447329491770192 
-0.021540867734411974 0.096055126710376346 0 -0.055167917880846913 
-0.6038149325725104 0.34785375147773467 0.054712771641550813 0.15873110020058095 
-0.021540867734411974 0.096055126710376346 0 -0.055167917880846913 
0.17911729096041029 -0.01737591390246393 -0.37385088455481291 0.13619403686488746 
0.34103263329292693 0.0094349347591005106 0 -0.2468773324864367 
-0.23208301691606589 0.42566771870172204 0.023859954751268189 -0.26241197329164673 
-0.58596515696667639 0.19348108170104331 0.071708479046350387 -0.025938805028643406 
-0.24360899104748168 0.022531330157648213 -0.13483566888037227 0.085324393146594957 
0.055034593808445345 -0.10742226792811278 -0.13781901143908848 0.17030548670868534 
-0.39391171350218668 0.19247175226910318 0.46996752165181455 0.046222277397426244 
0.17389723099490018 -0.014715311078622881 -0.26812068762196656 -0.033286147257720528 
0.17911729096041029 -0.08089752755855717 0 -0.03287067104416444 
0.128013551365387 0.19355836091174716 -0.16676984291452943 -0.10034586042380889 
0.34121003550336504 -0.61729410467648826 0 0.25419216119967658 
0.17911729096041029 -0.08089752755855717 0 -0.03287067104416444 
0.25850937096986054 -0.23881060143044613 -0.15885673612142071 -0.1979541622746683 
0.051163157546248061 0.38781035289006732 0 -0.11914945523066049 
0.099084574550388688 -0.20145083794279206 0 0.096459222826978108 
0.082075044150780305 -0.30422595417863701 -0.01469146860880996 0.17474615579436792 
0.038114566003367205 -0.1420909541362298 0.098999506112343302 -0.19077566633607088 
0 -0.12386525489787616 0 0.21092442372532252 
0 -0.12386525489787616 0 0.21092442372532252 
-0.44613117338290886 0.28866586199451072 -0.010868154536913401 -0.0049821596712314167 
0 -0.12386525489787616 0 0.21092442372532252 
-0.27155150510951642 0.15525920461135062 -0.18785293974653244 0.2952408035499593 
0.084127174498897062 -0.35065103376881551 -0.18613626218305612 0.36045213269613485 
0 -0.12386525489787616 0 0.21092442372532252 
-0.29243079322901949 0.30638366241127873 -0.0092248599904765152 -0.22328926192388321 
0.030749193667620328 -0.11321260194388218 -0.26893928386676774 0.23856522002655392 
0.028247255728059188 -0.10537714068034487 0 0.21306871547697806 
0.23167731666463059 0.092974149869952213 -0.28092060941972624 -0.082528781272448754 
-0.23442785866938745 -0.51174453772528694 0.58843993983807685 0.16595542640829317 
-0.22222666310670378 0.1493711694216715 -0.012291755907393065 -0.094162569714359365 
0 -0.29984107345570155 0 0.32256168136228452 
-0.12810306345851949 -0.17172474943922544 0 0.32256168136228452 
0 -0.29984107345570155 0 0.32256168136228452 
-0.29098335032124678 0.16844174439278445 -0.0095372328409300839 0.22963694033205262 
0.13725883077407627 0.1026024210881898 -0.011036385951467085 -0.0064821610423425836 
0 0 -0.0095372328409300804 -0.044675730922608389 
-0.22039900166869653 0.33771618960108057 -0.1826114195113453 -0.17529142488669069 
-0.36553585707416036 0.51996830195380839 -0.037084471533580507 -0.25783996461761244 
-0.16433413635224467 0.20806498118406486 0.23728768850178328 -0.12903678371608174 
0.14905763526373214 -0.28207282555030527 -0.13746103520151234 0.012053849536619667 
-0.024235429891274831 0.015431474870196731 -0.0095372328409300943 -0.082813089843027293 
-0.036030200475206178 0.15926136860098447 -0.036882710630695356 0.021923635259197209 
-0.2997797989235792 0.40106367763662454 0.020477185789793455 -0.040447024001275096 
-0.048499592807266505 -0.058904990133273993 -0.16155982605318547 0.12791801410597936 
0.22459471153431357 -0.14985093989329409 0.10087280986569178 0.01608006139306974 
0.1274233694264007 0.051750362334496411 0 -0.043139392093248109 
0.20490584120792613 -0.041550219790957542 0 -0.043139392093248109 
-0.1802977772229149 0.0020715981585000334 0.19541362957898911 -0.10989613225217529 
-0.045643213494771691 0.094152797787049977 0.20597562441225128 0.035152736345073488 
0.10484841446661386 -0.0804689479157117 0.21279245414029305 -0.23944659441389102 
-0.026411840898872437 0.1575138715851282 -0.67721037762949698 -0.20203071058381045 
0.040859644061150432 -0.073564550075393517 -0.10884611297793084 0.22264721272277788 
-0.031376403441765746 -0.18051252549859911 0 0.26851563809804263 
-0.031376403441765746 -0.28990898415168292 0.13636552053285289 0.26851563809804269 
-0.17769295418159092 -0.01692667703538937 -0.4557073065954263 0.13071975328653332 
-0.13454554129966553 0.073431383539288062 -0.17151338636686372 0.3196657920856909 
-0.49321647055578116 0.42266130813856695 0.021619339363590617 -0.1344170534270972 
0.0051437208514415293 -0.18923314966910881 0.53023188944363264 0.017739096871559126 
0.15049327665843043 0.016838691913648729 -0.13004483650993795 -0.060047376454968451 
-0.098938218163388478 0.14244685904959167 -0.054329351279423746 -0.0027526719079925873 
-0.031376403441765746 -0.18051252549859911 0 0.26851563809804263 
-0.34074114787511589 0.42856143251179807 0.19747863710429836 -0.061954595190505404 
0.24301838864729472 -0.11320823233278685 0 -0.081314010349025537 
-0.53776581583001459 0.5518083200305387 0 -0.064124747646787994 
-0.24148403475039115 -0.094990788893051709 0.55968249977942763 -0.36073501106738182 
0.84709568515470135 -0.76994791262592033 -0.17115853722313382 -0.18931107678594183 
0.24945590711673177 -0.12507738109910871 -0.092820390290928631 -0.17446360858622562 
-0.11754443899301265 0.017846049828682091 -0.089204015641119308 0.056375921781065687 
0.085968500584099855 -0.041973772669912771 -0.34334654022004057 0.24821634929331685 
-0.16044646679307464 -0.3080976939702586 0 0.42189943213731801 
-0.084089550731559368 -0.032378640888830218 0 0.1303896701062186 
-0.53911679683504865 0.39162722314703091 -0.10155961810541192 0.4191737062753893 
-0.16044646679307464 -0.3080976939702586 0 0.42189943213731801 
-0.15213885026617135 -0.081625937551419683 0.16724187960490233 0.14373770803756997 
0.044191845711100339 0.24034071277024546 -0.0194646060617032 -0.43802387484344751 
-0.51033567802363056 -0.081150742530511591 0.48184323001077856 -0.32157957817122435 
0.021715137939590626 0.096437845600645722 0.13896866314092243 -0.097334107023388003 
0.15393622090253864 0.34835340132534176 -0.35736177883749148 -0.22732124934891629 
-0.22985535391926615 0.41891446049091802 0 0 
0.080486242295406546 -0.047546641627551685 0 0 
0.080486242295406546 -0.047546641627551685 0 0 
0.07855652426768997 -0.1800416319254439 -0.024869787077448857 0.27409253334822614 
0.080486242295406546 -0.047546641627551685 0 0 
0.21802571467230078 -0.45203208964538177 -0.085776182391956488 0.28979394325110297 
0.55511751529361553 -0.29040628497204291 -0.46927449503941537 0.30630884765538463 
-0.06176459982491881 -0.030869041763206147 -0.22734097199111583 0.44127811342180112 
0.18212401579249615 -0.28055080380983316 0.20189928292040007 -0.16538410172680731 
0.05754714602774616 -0.36583924072803886 -0.06890018781576264 0.4807340181937878 
-0.083428976834169971 -0.358121595055995 0 0.51412607363871354 
0.18963923378722836 -0.079960865445276433 0 -0.018389993014352009 
-0.12414052776609448 0.054385543355802431 -0.073388906132166254 -0.088447254943237866 
-0.4374945408770094 0.26811851234263478 0 0 
-0.4374945408770094 0.26811851234263478 0 0 
-0.26956343819415618 0.03391227229481894 0.067021916667448084 0.19545355950983193 
0.033942947877654242 0.073952810394927695 -0.01057397328226937 -0.028493134974074602 
-0.025615222327029827 0.26622074499533255 -0.15758781103763381 -0.14163551353099657 
-0.12799059664876264 0.56663723466286919 -0.010952213277758993 -0.52759185499578487 
-0.049665381648877328 -0.073547550543700213 0.10352711977577601 -0.016850101233741505 
-0.53619847532913967 0.64955983485091795 -0.29780721718691783 -0.013516627376429842 
0.061248046260051855 -0.21411658955878429 -0.019394545624904981 -0.13728030025527957 
-0.15136587428109488 -0.014545339681668103 -0.096236848583954177 0.2748444548829419 
-0.71788001684934277 0.061063332442588152 -0.011901755151179205 -0.34265115582296268 
-0.33080045046105522 0.2546849854469419 -0.27353659251587725 0.11479253164956446 
0.19187529789427263 -0.14662848257197555 0.15407322625821568 -0.098344468623003833 
-0.0011367924327426856 -0.10370049072276721 0.13076708089392641 0.17111779385475359 
0.29063438681383391 -0.27615453726717032 -0.011877149596954552 -0.067757512655185426 
0.16318845163368964 -0.14581090976704447 0 0.18404030492922188 
0.24000226717413498 -0.13074431026033073 0 0 
-0.34735612437961683 -0.35659433847269123 0.1752723317742057 0.50628622927642231 
-0.088188286215243161 0.0096880341039086992 0.33663511288971354 -0.27383214111771143 
0.24000226717413498 -0.13074431026033073 -0.0021861646318262116 4.3368086899420177e-19 
0.24000226717413498 -0.13074431026033073 0 0 
0.81356825001270916 -0.36806688613366767 -0.36718417512227308 -0.093669514408540072 
0.24000226717413498 -0.13074431026033073 0 0 
-0.16674753629606426 0.3137126830589298 -0.10315971454632239 -0.27447654565186741 
0.057278777698188274 -0.25334778169938127 0 0 
0.057278777698188281 -0.27474675417859007 0 0 
-0.11977251132339561 0.020583718618741031 0.1111622779809395 0.04492712835630127 
0.057278777698188274 -0.25334778169938127 0 0 
0.25575535438464203 -0.06782929482262566 0.052418817639425755 -0.13473879690755627 
-0.14690270263787183 -0.15889166987583522 0 0 
0.077147687837511136 -0.07773746999331077 0 0 
0.077147687837511136 -0.07773746999331077 0 0 
0.077147687837511136 -0.07773746999331077 0 0 
0.029390492326788045 0.018540898847537492 0 0 
0.077147687837511136 -0.07773746999331077 0 0 
0 0 0 -0.064124747646787994 
-0.64316187428415783 0.28993378324850128 -0.024595977372476679 0.3229811892898421 
0 0 0 -0.064124747646787994 
0 -0.058702742334250449 0 -0.077179371790098455 
0 -0.10516672236688779 0 -0.064124747646787994 
-0.15259957202681682 0.10826403817553175 -0.21705930127373541 0.093426807975995577 
0 0 0 -0.064124747646787994 
0.0067884467475009848 -0.32505979331992307 -0.50650080546897946 0.61983502185553252 
5.2041704279304213e-18 0.19521369190154139 0 -0.1412532397010029 
-0.23300677822574392 0.175313365919189 -0.0074907993220432977 -0.20141957077101186 
0.26439556001833603 0.02219866986118349 -0.35551676102130664 -0.24527622793962905 
0.03124434228158967 0.11265139957436304 -0.12134026786636379 0.010236650939201227 
-0.084443397546053997 0.036411407597511353 -0.012359897020663677 0.031189558000280986 
0.011492575144194547 0.037049789550536283 -0.017224514922524567 -0.29314737727350926 
-0.050108575770419918 -0.15399065784575555 0 0.10569621629019713 
0.075431025800846943 0.1517810565902753 0 -0.17310807529027425 
0.075431025800846929 -0.13336274538262016 0 0 
0.23766490826094414 -0.23450556609282391 0 -0.061785142359373615 
0 0.0070459000106228064 0 -0.031898906993764548 
-0.33044765871984255 -0.015466885497264309 -0.26157801966988331 0.49086276463245831 
-0.048844428299928959 0.048302162631121269 0.0063963953077768457 0.033126323598912988 
-0.019729246092786441 0.0070459000106228046 0 -0.031898906993764548 
-0.38057927275073089 -0.088555469802674452 -0.35142335136820274 0.53565769274994468 
-0.022300729496686999 0.20983811474292596 -0.024585699794565697 -0.32078250306179695 
-0.5711129692593061 0.20160280292450578 0.34408179689391777 -0.018755753037372355 
-0.22193310998814822 -0.040861237840372211 0.12833112286071538 0.21065037940983164 
0.095149580404536985 0 0 0 
0.2813093454947786 -0.22136144862020826 0 -0.14768976061234865 
0.095149580404536985 0 0 0 
-0.067789835232199197 -0.31073869695896505 0.42109734239687463 0.20402232422047081 
0.049536228517896908 -0.10461109541205882 -0.070445110131787073 0.080505048235679944 
-0.22647419802441665 -0.14601538547445625 0.041768954007041253 0.017558359250882439 
-0.14970975170848633 -0.22466193437943716 0.52861726544875931 -0.2725814016078823 
0.10884426579311053 -0.047773623008345784 -0.015830092830063387 0.11700412466015478 
0 -0.19228299843470734 -0.015830092830063387 0.17311564273401439 
-0.13662556390430836 -0.23105918859405458 0.32148678539534442 0.015724682175514846 
-0.029228876427128465 0 0 -0.08529609177080294 
-0.072423629353689969 0 0 -0.073602742164967788 
0.15883763557318237 -0.2242331413552463 -0.15925424167562358 0.050143821247367389 
0.096079416884215785 0.17877858909237351 -0.13946727875623108 -0.12411483713915653 
-0.028919837072816874 -0.075897523472387818 -0.050998380829976729 0.286972918582513 
0.038530525288645583 -0.045616627405986876 -0.091559462886957405 0.166336857175925 
-0.47748557275466119 0.88783750052696453 -0.16427836153283532 -0.39775048844272037 
-0.072423629353689969 1.0408340855860843e-17 0 0 
-0.083432660713328999 0.18405290233930832 -0.0014991531105369978 -0.044233809179859508 
-0.32745867406160289 0.10595998962750655 -0.040020388396882968 -0.22990631532668881 
-0.28810627260027166 0.19232237215867704 0.037896892573269711 -0.13812073373239731 
-0.034782577488973371 0.43149936421698853 -0.33284662477466176 -0.25928785587972469 
-0.52815540532212268 0.018340067743118096 -0.36723657560566109 0.19327865881913467 
0.090764759004844237 0.23481923934281523 0.045655189455451231 -0.27481896885129314 
-0.05296952871120076 0.091831440174593923 -0.0014991531105369978 -0.11577178534408353 
-0.36592145396052028 -0.01762768421982857 0.020404402707382772 0.10846869226759522 
-0.084966028791385165 0.082227574853033628 -0.43421515637695152 -0.075747019605560628 
0.74837130856697109 -0.87587351342172604 0 -0.17030935898955146 
-0.60361285437307699 0.18555750778068808 -0.014215106635540221 -0.045945113742156693 
0.19538579233139591 0.14319078495609922 -0.5727248480810001 -0.0043801297265638256 
0.063940425428090683 -0.1131613292220687 -0.058657343292985671 0.028611591051201927 
0 -0.13594354012690993 0 0 
0 -0.13594354012690993 0 0 
-0.21379408422875937 0.19295799830665936 -0.25329477149546714 0.28421185264496507 
0.076016100297057701 -0.31242499511497485 1.0408340855860843e-17 0.12846168427955254 
-0.16501130549546833 -0.010301246616583888 0 0.28101016453118638 
-0.16501130549546833 0.20059355308906424 0 0.026893396136875782 
0.20006823732224971 -0.37234314033537863 -0.1343514087193724 0.57605423570900149 
-0.16501130549546833 -0.010301246616583888 0 0.28101016453118638 
-0.16501130549546833 -0.010301246616583888 0 0.28101016453118638 
0.376010515157022 -0.51434214308009496 -0.19217099181935168 0.30129203949509759 
-0.16501130549546833 -0.010301246616583888 0 0.28101016453118638 
0.21063037601902365 -0.32664479918399159 -0.1761786673272652 0.23181186534548331 
-0.13181603212045531 0.069549673822566896 0 0.23071825776510485 
-0.14083213575543227 0.15185056165301114 -0.12423447309387758 0.17663088194279203 
-0.40188325357705318 0.2630867133618765 0.15951640638415582 -0.19210617013897699 
0 0.11912401977099685 0 0 
-0.11799353217856715 -0.54397962236651087 0.46643589367886279 -0.34064726401187045 
0.24500038200662677 -0.19283764042820359 -0.2901092832024047 -0.38305721114445512 
-0.064437111438092692 0.31612786740214616 0 -0.25105732267250724 
0.17180915637756972 -0.12436824399624676 0.3031838963161127 -0.26371554349642662 
0.055139168864241098 0 0 0 
0.10367784542351022 -0.087979554122936621 0 0 
0.21697556581364835 0.02568419168633063 -0.20223237949580622 0.04811535298588504 
0.13404769283509099 -0.35194368947584392 -0.0014820401101908933 0.25010581860233427 
-0.073283071011545714 0.09896660049709527 -0.14674276737208572 -0.066095037922076244 
0.19904857435312232 -0.28121035921983389 -0.19414716703402041 0.46121116716447808 
-0.1618359674867679 0.092836199533989791 0 -0.064230947429551516 
0.021084849438030441 -0.0022545511173763001 0.099029516047101168 -0.45948735585604883 
-0.10456562653291998 0.26924912027475156 -0.03515294687670064 0.26383093396044405 
0.2345414851420366 -0.33016083658717427 0.027033919681614508 -0.1404841482814897 
-0.22526630300793118 0.062203561419563264 -0.0013557362213744342 0.11846403306017389 
0.055139168864241098 0 0 0 
0.19526421427440768 1.0408340855860843e-17 -0.050373673402896946 -0.028224093524836763 
0.0020948530118076181 -0.094222824418495874 0.30227489443792666 -0.17351220884729715 
0.055139168864241098 0 0 0 
0.057423568675101344 0.12444415467150666 1.7347234759768071e-18 -0.3125132736167307 
-0.04623044120869399 0.063461103370293009 -0.15667531319140271 -0.29413454477949291 
-0.16507712649644696 0.15462048116140295 0 -0.13766408566738866 
-0.16507712649644696 0.15462048116140295 0 -0.13766408566738866 
-0.16507712649644696 0.15462048116140295 0 -0.13766408566738866 
-0.16507712649644696 0.15462048116140295 0 -0.13766408566738866 
0 0.19682582554284364 -0.047151935287597722 0 
0 0.19682582554284364 -0.047151935287597722 0 
0.081682877616680138 -0.34343661103293682 -0.072378794826584963 0.23600751776692391 
0 0.19682582554284364 -0.047151935287597722 0 
-0.20572535910737377 0.14588893782984044 0.050032157493943075 -0.21302988168144527 
0.40824535076397894 -0.58894265087911202 0 0 
-0.090789777033505908 0.03796087179916946 -0.07728725875955933 0.04390928400519771 
0.59628088246052113 -0.76966158423236952 -0.085258896222763281 0.2505009046852138 
0.24752583691880556 -0.49022767725467442 3.4694469519536142e-18 0 
0.18933052905267758 0.39276598518715966 -0.095680762987433887 -0.42039370995189962 
0.31353829440162395 -0.46352274191321219 -0.0095955581109893415 -3.4694469519536142e-18 
-0.084655602028170227 -0.18084863599299192 0 0.33865713869920216 
-0.084655602028170227 -0.18084863599299192 0 0.33865713869920216 
-0.03039210717794779 0.36974988152717508 -0.20279298784495101 0.13776175853160499 
-0.084655602028170227 -0.18084863599299192 -0.043540700689913746 0.33865713869920222 
-0.1683720616945012 -0.13263907222198282 -0.011035170198670103 0.31032614918956919 
0.11740898995245386 -0.066606049542916435 -0.2074875413135282 -0.049492297159425401 
-0.074739208928005105 -0.32795801203901753 0.40749551735322692 -0.16972053723321739 
0 0.047033558947777734 0 0 
-0.030690515885259229 0.072452869531236128 -0.0049882310481353899 0.054591826589953332 
3.4694469519536142e-18 -0.04035477500938766 0.14040954294308841 -0.027047338915488418 
0.11727573655561424 0.028615403422991854 0 -3.4694469519536142e-18 
0 0.047033558947777734 0 0 
0 0.047033558947777734 0 0 
0 0.058375743355328476 -0.037041591791754445 0 
0 0.047033558947777734 0 0 
0 0.047033558947777734 0 0 
0.045171407748479386 -0.0085573240160436992 -0.12532090523134218 0.19841987458598404 
0.45879569451240537 -0.072343029088578578 -0.45631639368542998 -0.45026965800638324 
-0.15587763727436404 -0.33598769174009241 0 0.31296769770559152 
-0.17531044781793834 -0.26174542845971599 0 0.2943125440819096 
-0.22730944392265931 -0.40586616720780833 0 0.48242164178824215 
-0.19218265658136668 0.23731167790212565 0.11829909928255217 -0.29063990678081408 
-0.0016816111071678644 -0.041669848918354228 0.15575261932888679 -0.12800175701174535 
-0.15514129554889602 0.094750146449989664 0 0 
-0.41224866959869155 0.3419539622685045 0 -0.053647012288611642 
-0.012967781683000338 0.0039954317922222676 0.053422815456632911 0.16760972463048837 
-0.02121742146773125 0.12848257358426696 0 -0.12591892456290057 
-0.0018687207025789854 0.0031464271246129643 -0.54234659592882717 0.38482343883232645 
0.044428710609120993 0.13544055809361888 -0.39335541690438447 -0.18723727327646775 
-0.071431806648295168 0.14521211989864172 0 -0.12591892456290057 
-0.19539050495206811 0.42316838295693171 -0.16486650692027405 0.26243467685363819 
-0.17889992942885638 -0.0097951983415230925 -0.32603596097258553 0.21339337323485624 
0 0.041514830525134473 -0.0052474251951710191 -0.092662030959547614 
-0.089848185306453873 -0.042727235898535727 0.22443250586713889 -0.21377461813011467 
0 0.041514830525134473 -0.0052474251951710191 -0.092662030959547614 
0 0.041514830525134473 -0.0052474251951710191 -0.092662030959547614 
0 0.041514830525134473 -0.0052474251951710191 -0.092662030959547614 
0 0.041514830525134473 -0.0052474251951710191 -0.092662030959547614 
-0.027499388573828935 0.26746011139449966 -0.025306351820872215 -0.32747771454392594 
0.061706737910091708 -0.11560345590202677 -0.051069383002874377 0.22966251070732241 
-0.075074925274441096 0.34511709619344311 -0.032032767178640391 -0.02632020319174868 
0.088281134045227055 -0.10022280405452319 0.17920867066111729 -0.014496008048746857 
0.031652960571661032 0.30430920761963764 -0.017283565202015853 -0.21924508518102129 
-0.29746005356541583 0.15668997526056622 -0.091560016720008519 0.086828815155993763 
-0.10197486683004847 0.37246866699049941 -0.024444075295129947 -0.14223342389415641 
-0.038728361618140791 0.058412136138867962 0 -0.04260926961666256 
-0.22235134704889289 0.38853183944794506 -0.22580349807085381 0.044092092689464665 
0.14634932509112836 -0.074956442387143565 -0.0549380357955086 -0.048934493832793378 
0.14637167508647198 -0.12870344711460444 0 -0.050155489322113736 
0.21118149967618235 -0.156667772393809 -0.056787132308885095 -0.088780545467817704 
0.040947046478407967 0.0070957687931257202 0 -0.043186461912412689 
0.20564953929203841 -0.018023163148097814 0 -0.24903858782270752 
0.34093995698188678 -0.23203452384956988 0.055665732908947149 -0.070560262289514508 
0.017299430340932242 -0.074956442387143565 0 0 
-0.25142265973050559 -0.33626992125068744 0.26087525100194975 0.15597275797317128 
-0.10032360901577593 0.26295500991387744 0 -0.12439239028052128 
-0.10032360901577593 0.15054194243815738 0 0 
0.11421905715039522 -0.036374839509289741 -0.016747199211421721 -0.045673982629030392 
-0.10032360901577593 0.15054194243815738 0 0 
-0.10032360901577596 0.31192375231885339 0 -0.19000934215387344 
-0.10032360901577593 0.15054194243815738 0 0 
-0.0047258157944195453 -0.11368721577966324 -0.15226126696972489 0.22131056934260457 
-0.10032360901577593 0.15054194243815738 0 0 
-0.10032360901577593 0.15054194243815738 0 0 
-0.38697521842751958 0.36668688682032191 -0.12993630705045511 0.13116324118651895 
-0.10032360901577593 0.15054194243815738 0 0 
-0.42958548890345682 0.30170280799906457 0.3275168133602504 -0.23911870777270747 
-0.056027791959073016 0.13336857852601153 0 -0.04260926961666256 
-0.056027791959073016 0.13336857852601153 0 -0.04260926961666256 
0.41052729668920485 0.10011518317789486 -0.33601009098814155 -0.27068690040325838 
0.13725203612699649 -0.4064916932679562 -0.30731614285128939 0.30150109303525485 
-0.0039686759441961549 0.15515397567179831 0 -0.17860030277446393 
0.16469509472855312 0.015602948553955526 -0.019728750609389015 -0.20105464870137688 
-0.056027791959073016 0.13336857852601153 0 -0.04260926961666256 
0.048567210474020066 -0.25359646820884491 -0.29686451862498958 0.38655749947030216 
-0.30885878304226538 0.27951270324114458 -0.06456215937824708 0.36753475696160082 
-0.32807815195028139 -0.10279167451166257 0.32986085358190964 0.50937652169155923 
-0.056027791959073016 0.13336857852601153 0 -0.04260926961666256 
0.32102905987348779 -0.36414079833792018 0 -0.11946915641650678 
0.10117193139599658 0.011465708026994356 -0.18157283770609792 0.13280314897489057 
0 0 0 -0.055185466133367084 
-0.39256904244390023 0.10518307068910451 0.18122660443355826 0.075911838973208842 
-0.081649720752145036 -0.17186095470018597 -0.20195751739999357 0.29360869810323775 
-0.20350426818596309 -0.069385389868566349 -0.011083017659694478 -0.00441680808454358 
0.27672539472014446 -0.24160695101773688 0.23380019395424201 -0.074920394349208747 
0.85643783416083752 -0.45037232932178872 -0.052305874459254283 -0.074920394349208733 
-0.029482764506874606 0.35089331574944743 -0.13395857860336174 -0.4602343656299076 
0.38846610630216177 0.065607976980576618 -0.19415172360140645 -0.25042883798331372 
0.62700373475025406 0.033258721737665552 0.084713636134859799 -0.42348777760118028 
-0.120967969941584 -0.15165388999947199 -0.05773273135990209 0.54720559159557991 
3.4694469519536142e-18 -0.44774648314423449 -0.014566285540298537 0.3487302990381973 
0.27475096455156134 0.026973681827907835 -0.70274950030756 -0.35402705271293133 
-0.66678433201392318 -0.034155855616655115 0.12696730435538445 0.29199588120926973 
-0.20495847541244164 0.020412035044203081 0.011732130672090134 0.35393732004122008 
-0.20565099362226244 -0.21626824073527251 0.010473433995912971 -0.001930679638279142 
-0.23507862506837154 -0.089430333975642165 0 0.5950428390053446 
-0.35563537038134141 0.24100437174909678 0 -0.031157016420715635 
0.30930257083939905 -0.31284104242061767 0.03557885482538084 -0.41170959395489326 
-0.16475871560987063 0.044903763068226923 0 -6.9388939039072284e-18 
-0.4693348008795144 0.28930480228800909 0 -0.042879722877574841 
0.087132202693975758 -0.08988036933925185 -0.059035432404016923 -0.057074894595460189 
0.18629087827308616 -0.33421045958290663 0 0.031299739741312796 
-0.19370581268096992 0.1446524011440046 -4.3368086899420177e-19 -0.082485729928345186 
-0.028884974269345998 0.15859711766309015 -0.1746202256329317 0.17041405520777608 
-0.23466740043975726 0.1446524011440046 0 0 
-0.16807725383936414 -0.16966110849721686 0.1961056878971171 0.17208757784666492 
-0.041716330356664534 0.3286978925869255 -0.088059586701145845 -0.1291564844364754 
-0.41336301644459494 -0.21474098807826797 0.058556020123576719 0.33516823378387262 
0.030194641010974927 0.13440150394710249 -0.39033795612434991 0.033365013758996927 
-0.15585834253964473 0.14259769650364834 -0.51453509204037962 0.14764907540211439 
0.23252184642623541 -0.32855638083394506 0 -0.064283690283139822 
0.32102905987348779 -0.36414079833792024 0 -0.064283690283139822 
-0.26921789831267551 0.40907913391665812 -0.12232031809648859 -0.2972477704822758 
0.32102905987348779 -0.36414079833792024 0 -0.064283690283139822 
0.30594468398908298 -0.36414079833792024 0 -0.06428369028313978 
0.58575361982931606 -0.54608708704574005 -0.039272752075784956 0 
0.3376079992405443 -0.44519098984734368 0 0 
0.046300730457550066 0.25934503504151207 -0.14228823857485651 -0.035704038404180766 
0.010907371258175612 0.031772888295897632 0 -0.035930462120381042 
-0.1343080532206602 0.13404268765721852 -0.017118987844510419 -0.03593046212038107 
-0.030054216500611811 0.031772888295897632 0 -0.035930462120381042 
0.226099804959004 -0.061507526011894 0 -0.081749425575535217 
-0.072789338922618962 0.29835332141553861 0 -0.1338465340809161 
-0.58332920867127769 -0.018438868199303699 0.20639389187567803 0.11771261347469389 
-0.030054216500611811 -0.074186967645860358 0.095681389976271847 -0.035930462120381028 
-0.34400177889599576 0.44156860666244668 0.29512713099919852 -0.25413619645712587 
0.53490279881686242 -0.47591646259625797 0 -0.23954688985829653 
-0.17127467629190807 0.14478727531327065 0 0 
-0.035964326137526481 0.019070030869470789 -0.027018556472987811 -0.096765889961121496 
-0.17127467629190807 0.14478727531327065 0 0 
-0.17127467629190807 0.14478727531327065 0 0 
-0.17127467629190807 0.14478727531327065 0 0 
-0.1221521044534576 0.0068298626745580257 0.0092737684030544075 0.041595615964091101 
-0.17127467629190807 0.14478727531327065 0 0 
-0.52915396372102863 -0.32488252977903265 0.62759635311436168 0.41052751401263576 
-0.22406084307529076 0 0 0.75970297483100135 
-0.026880525825081998 -0.055581052228425236 -0.015624916598340768 0.14199021618137664 
-0.11205996162339669 -0.031626073565338385 -0.11157996874393186 0.069245224709755526 
0 0.067077522555972699 -0.0095994046458279542 -0.010897395001466234 
0 0.067077522555972699 -0.0095994046458279542 -0.010897395001466234 
0 0.067077522555972699 -0.0095994046458279542 -0.010897395001466234 
0.11417714773948548 0.011259935545644622 0.092959589757356589 -0.33246952802797736 
0.042111799992224641 0.26400005304041047 -0.011543282447529089 -0.029593232655003982 
0 0.067077522555972699 -0.0095994046458279542 -0.010897395001466234 
0.014561551796442453 0.15252565508465377 -0.10745250750014491 -0.18320627103757378 
0 0.067077522555972699 -0.0095994046458279542 -0.010897395001466234 
0 0.067077522555972699 -0.0095994046458279542 -0.010897395001466234 
0 -0.40513287707800516 0.069875909157693789 0.25974586764354285 
0 0 -0.01750119457733771 0 
0.37782702754924252 -0.073894646933364741 -0.036965800639040959 -0.081335366006720228 
-0.02940314908029561 -0.19553666662128649 0.1435566391973431 0.013746637971762489 
0.34683935547437411 -0.27705727156861032 -0.10498324142029933 -0.10919547529180021 
0 0 -0.01750119457733771 0 
0.0071868961211060175 0.18002659670057816 0.1609510086216705 -0.0078883846637364946 
0.13109379680926705 -0.15800432351983934 -0.11366099922989584 0.036727386890877484 
0.055536690846126738 -3.4694469519536142e-18 -0.01750119457733771 -0.16431813620350944 
-0.10303563447304316 0.39514151520097046 -0.076373930570658832 -0.049185971028386025 
0.013834248628793001 -0.087113734906716964 -0.056773946653122728 0 
0.053514761705014249 -0.086503833504802632 0.029548339372669419 -0.035907582965030181 
0.1378953594173625 0.14159978684932198 0.069017809263518665 -0.62881260602240796 
0 0.20694618660983022 -0.12993630705045511 -0.030417035148340574 
-0.74859127705444273 -0.034228216644031612 0.72843890767655628 -0.328627231227058 
0 0.045008999969719542 -0.12993630705045511 0 
0.060710170501773769 -0.12657052026957374 -0.048843497088858427 7.453889935837843e-19 
-0.13772131837841059 -0.093117963217550753 0.2247606939328447 -0.27832861081499116 
-0.056831355749813697 0.10675141889064617 0 0 
0.40808074940863009 -0.072934684289892249 -0.13412386895734016 0.076598281485481118 
-0.041026518368451489 0.10675141889064618 0 -3.4694469519536142e-18 
-0.1955390218793841 0.48819051089576443 -0.22195674216252403 -0.0084626417441819018 
-0.09622522649564931 -0.033565131255946713 -0.088896429252967896 -0.31690047869466731 
-0.056831355749813697 0.10675141889064617 0 0 
0.35245318577927298 0.0065796452698774904 -0.31624229433387691 -0.2427901404287568 
-0.10953870651118501 0.24036122517510092 -0.14934654520968979 -0.027773524627494751 
0 0 0 0 
-0.094933727956694788 0.28414003363118834 0 -0.19237666719120278 
0 0 0 0 
0.040499803380866915 -0.067176535172776414 -0.11258125704579672 0.15338135240857839 
0 0 0 0 
-0.17658706830249501 -0.14031002643378168 0.037018163589213213 0.16224349751451766 
0 0 0 0 
-0.097774642379712784 0 0 -0.038281444169164805 
-0.097774642379712784 0 0 -0.038281444169164805 
-0.097774642379712784 0 0 -0.038281444169164805 
-0.28977007160951862 0.07879261495279602 -0.076654134484644476 0.18796816630495741 
-0.097774642379712784 0 0 -0.038281444169164805 
-0.13091870992663548 -0.14279102874887847 -0.20200278407990779 0.68180653814299297 
-0.097774642379712784 0 0 -0.038281444169164805 
0.98928077867452546 -0.20792478045760057 -0.89947029012167101 0.019208185975449002 
-0.63261842238024379 0.85311617521233518 0.18054486322204122 -0.23399006277724338 
-0.0040782295546970809 -0.19161840112885625 0 0.28247975095889083 
-0.0040782295546970809 -0.19161840112885625 0 0.28247975095889083 
-0.2405983115822134 0.38563424776704036 -0.35151211729987475 0.20157338028392713 
-0.016102694111657035 -0.12402173228488809 0 0.15106300716846394 
0.10223568374190392 -0.23725309323145197 -0.029165246530301132 0.28247975095889083 
0.058950030203947609 -0.027507443251996552 -0.17809859093081912 0.14286007045099566 
-0.24733400534634156 -0.46749203086760971 0.42292297282842833 -0.025337310877388972 
-0.24554986483828373 0.037441039166195449 0.56138659375384892 -0.25988249368552457 
-0.066848058155161205 0.16732282050055605 0 -0.078573433895708589 
0 0 0 -0.078573433895708644 
0.14225149251440547 -0.016370709017401151 -0.012819006967147033 -0.17905708200480994 
0 0 0 -0.078573433895708644 
-0.070076692890419345 0.11710972908084299 0 -0.14500138510417954 
0.15229861062449157 -0.11735394807413782 -0.14373405031385444 -0.14705887563056602 
-0.11409076494591609 0.26845292836494794 -0.07821239454968823 -0.069906587657944941 
0.30472427049322742 -0.080677265617764699 0.43304951760170329 -0.28239291477931805 
-0.054320061448355647 -0.063183187406919278 -0.16498344858748709 0.37835819033194007 
-0.13461176658484156 0.025236783012558228 0.023938940394922351 0.36424459872508447 
-0.19764412664416514 -0.048466959688950789 0.30345376026025705 -0.24197175526893977 
-0.33295941199624063 0.22964574223850498 0.37113579083878984 -0.35854099636287529 
0.46014584335893416 0.053440054576600997 -0.1549095179311368 -0.077542020396837844 
-0.072347095125002134 -0.12941235087137748 0.30850862996791312 -0.091428366617367113 
0.10546965397728993 -0.038815596616611055 0 -0.26500289511226088 
0.29554961872879448 0.022256868740064679 -0.13229984352894172 -0.38194468947062399 
-0.39837008821453551 -0.20114509521058038 -0.035813623363452611 0.51355609021365878 
0.10546965397728993 -0.038815596616611055 0 0 
-0.19265978095361827 0.10546582647689323 -3.4694469519536142e-18 -0.066954816402816295 
0.10546965397728993 -0.038815596616611055 0 0 
0.088780944481458138 -0.019041134563582487 0 -0.066482782550615932 
-0.16648739822591196 0.42084220714646292 0.019361985847284695 -0.26293645958303591 
0.088780944481458138 -0.019041134563582487 0 0 
-0.3267824855058668 -0.047363952110901705 0.38155144043405192 -0.063410172353298905 
0.088780944481458138 -0.019041134563582487 0 0 
-0.22918262640751366 0 0 0.2509202064635897 
-0.22918262640751366 -6.9388939039072284e-18 0 0.2217615844304402 
-0.13931177540815726 0.14694474578537031 -0.048006170004243301 0.18078696026337415 
0.039423397706857828 0.009241055068390229 -0.13308016762275568 0.061632002282741655 
-0.034767907739596982 0.14069561530752561 -0.098005453978592755 -0.24168673806500246 
-0.22918262640751366 0 0 0.2509202064635897 
0.35916065089558546 -0.46844035243230336 -0.05642013293449593 0.038686115966041691 
0.19432769219946988 -0.13345253255092418 -0.050126324816373823 -0.16588636785751959 
0.21373088481038352 -0.24558749056666235 -0.016970132959928292 -0.049774604308654283 
-0.22918262640751366 -0.17737230406306972 0 0.3445280996026498 
-0.22918262640751366 0 0 0.2509202064635897 
-0.22918262640751366 0 0 0.2509202064635897 
0.24779043948198648 -0.1924184764158616 -0.060674603936476272 -0.020211760527160453 
-0.55678628941790298 -0.34996282039305482 0.6725889906849587 -0.1528420396342296 
-0.55696822255174894 1.1036473570291869 -0.77168011164179862 -0.46510773720970039 
0 0 0 0 
0 0 0 0 
0 0.31451988949285281 0 -0.31854804320015589 
0.32754139888763129 -0.32779139501846616 0.16838079079229912 -0.084358363888899252 
0 0.31451988949285281 0 -0.31854804320015589 
0.14507036724092981 -0.052793226662364502 0 -0.0037959523409144933 
0.14507036724092981 -0.052793226662364502 0 -0.0037959523409144933 
0.14507036724092981 -0.052793226662364502 0 -0.0037959523409144933 
-0.60848927154061405 -0.19077692920398498 0.13832051811875057 0.67544008115050902 
0.14507036724092981 -0.052793226662364502 0 -0.0037959523409144898 
-0.065775212271335357 0.18797199985784235 0.10308559537826643 -0.10742557603904274 
0.048331743705373728 0.19805070817292569 0 -0.23789853406244393 
0.14507036724092981 -0.052793226662364502 0 -0.0037959523409144933 
0.23730824751530341 -0.086756832915392226 0.12582454261182546 -0.12436738230289013 
0.11387469202838944 -0.052793226662364502 0.032583531808998117 -0.045457791160678981 
0.069449963811768933 -0.33979106897996669 -0.030815786502334356 0.18187819488650148 
0.14507036724092981 -0.052793226662364502 0 -0.0037959523409144933 
0.14507036724092981 -0.052793226662364502 0 -0.0037959523409144933 
0.14507036724092981 -0.052793226662364502 0 -0.0037959523409144933 
0.14507036724092981 -0.052793226662364502 0 -0.0037959523409144933 
0.14507036724092981 -0.052793226662364502 0 -0.0037959523409144933 
1.220427843250943 -0.056181036733433991 -0.053269734673397004 -1.2646814549763881 
-0.1605439055951311 -0.31805779686881613 0.46529111906726439 0.27155634667149742 
0.029291044501967404 -0.38754085878228767 -0.012551266595950565 0.27444253417328407 
0.056600071475111119 0.06574497646944405 0.019551570022185234 -0.35322141508330118 
0 -0.16388546691892858 0 0 
0.1523257000073974 -0.16648480518256908 -0.14228823857485651 -0.1329707665447315 
-0.0098297791540873838 0.11057042155137552 -0.16676984291452943 -0.067475189379644473 
-0.39182087172662011 -0.070512096155964307 0.034216163338084124 1.7347234759768071e-18 
-0.15099887536217155 -0.11574036759993388 0.14742465001868391 -0.1357819693535729 
-0.068060211238049104 0.053922476600787257 -0.032032767178640391 -0.25615415653026868 
0.062314549669193059 -0.26054330734257292 -0.028934510944852356 0.21803439726538865 
-0.0033338388124947663 -0.23774876499656286 -0.058319055619791747 0.27811670441296493 
0.097526177895961616 -6.9388939039072284e-18 0 -0.04887577166087094 
0.031157274834596529 -3.4694469519536142e-18 0 4.7704895589362195e-18 
0.031157274834596529 0 0 0 
0.044984855491521758 -0.080166516341731303 0.49505906488339768 -0.26267706507949673 
0.30398820896164824 -0.24756318294653079 -0.054646585338439226 -0.053707936969553151 
0.34633229844520319 -0.32107635085607522 -0.019363500790130519 -0.38102187141630478 
0.5890789046579552 -0.29052489613247223 -0.14885060892775306 -0.34654857945256773 
0.23866288176199285 -0.26125552576614131 -0.19217099181935171 -0.032192939223935541 
0 -0.23976829160808899 0 0 
0.3488503429721232 -0.24332019268169561 -0.033056965667778396 -0.092872295948585842 
0.029575706252937452 -0.036158829070401986 0 0 
-0.12318778467100015 0.35299942313796345 3.4694469519536142e-18 -0.10584464324465166 
0.059151412505874905 -0.072317658140803973 0 0 
0.059151412505874905 -0.072317658140803973 0 0 
0.03289109091476649 0.11818646875346134 -0.054610295289505777 -0.093205629581508326 
-0.20377163804681581 0.39982125001098623 -0.20594581643291496 0.096426559411375956 
0.029575706252937452 -0.036158829070401986 0 0 
0.029575706252937452 -0.036158829070401986 0 0 
0.029575706252937452 -0.036158829070401986 0 0 
-0.067792658549141779 0.092311383036442568 0.13987467074604948 0.12348535231488789 
-0.10525953902233547 0.47222826955299513 -0.13805346730844378 -0.33647056077233017 
0 0 0 0 
-0.60780886465446771 0.14206821042307624 0.066650815451587256 -0.026133868563493683 
0.13624706614770707 0.042700939416939872 -0.42835566309174439 -0.042064118421261461 
-0.60794262151571177 0.37927633462272203 0.43996398926531244 0.11225601707717797 
0.0097132686595461735 -0.57689575847963304 -0.019277659136654215 -0.04271246627208878 
0 0 0 0 
0 0 0 0 
-0.10070734287049746 0.060969752973131286 0 -0.027328030183815508 
0.15666862285256367 0.26637496929223653 -0.013067862821990813 -0.1305400714565379 
-0.12282189634917827 -0.038570671147954372 0 -0.027155042665244763 
-0.10070734287049746 0.060969752973131286 0 -0.027328030183815508 
0.059598634375125976 -0.067829194074431637 -0.0074592185970060888 -0.058143152277315868 
0.0041862982650011857 0.04663033738337688 0 -0.027328030183815508 
-0.10070734287049746 0.060969752973131286 0 -0.027328030183815508 
0.10650004850759055 -0.31604688119380342 0.075493350942337056 0.19131745506338679 
0.16898817186626752 -0.30816406896120352 0.075493350942337056 0.094890895652010449 
-0.11112542171381871 0 0.24152391870647644 0 
0.10048073566626022 -0.1623095598609095 0.11173839707355721 -0.10104434430331148 
-0.33334701080144197 0.037717068478420428 0.29759974616992385 -0.23818524122080956 
-0.11112542171381871 0 0.24152391870647644 0 
-0.028843513117546786 -0.38571739027316743 -0.23930146514602216 0.60430491755215099 
-0.043604787302132506 -0.26084134209978693 -0.016148036779540516 0.504599268696585 
-0.043604787302132464 -0.26084134209978693 0.038759245782819494 0.34077679121299492 
-0.043604787302132506 -0.26084134209978693 -0.016148036779540516 0.504599268696585 
0 -0.26636131283830239 0.23511773413491394 -0.028172062625146543 
0.037282854940638183 -0.19957343878569803 0.23511773413491394 -0.07615661317816598 
-0.063420462247173098 -0.092241671827307498 0.23511773413491394 -0.12071652197822097 
-0.11342583609281109 0.29489189482662836 0.084792803558728258 -0.1338008845009252 
0 -0.26636131283830239 0.23511773413491394 -0.028172062625146543 
0 -0.26636131283830239 0.23511773413491394 -0.028172062625146543 
0.19385151648563212 -0.2699555036330305 0.51325313014878615 -0.094286970026222119 
-0.36259775742116129 0.048848644039715991 0.018450183143648519 0.12004675797001503 
0.032203516545165185 -0.083467003810867607 -0.28049346207302922 0.037441400661809052 
-0.069921178209972318 0.46722273140612719 -0.028251090730431482 -0.22932310003807652 
-0.069921178209972318 0.46722273140612719 -0.028251090730431482 -0.22932310003807652 
0.11962933653748668 -0.29557469828307109 0.38485961375027478 -0.16909761364441145 
-0.53995800728729715 -0.008820593881163033 0.20869082352270624 0.27788177638565026 
0 0 -0.011626178524760127 0 
0.3040922580149098 -0.28181550414904794 0.14762474658627556 -0.0017324285324307777 
0 0 -0.011626178524760127 0 
0.1619262828519038 0.086128992677433514 -0.40676038687561389 0.079229500418037252 
-0.01922701934162082 -0.043859336519025328 -0.011626178524760134 0.24742136504987008 
-0.11922221685873244 0.30119006823483463 -0.025155005629604155 -0.18564305969767103 
-0.07259732845615699 -0.49843941011351262 0.30240780109136556 -0.0099006117838105496 
-0.063105165063336188 0.15614994689975639 0.30809285129534714 -0.32225893717558896 
-0.051103739595023255 0.27445588847030405 -0.16676984291452943 -0.067475189379644473 
-0.055255876739497355 0.048408813027823031 0.025449880076167476 -1.5892274806829192e-06 
0.46245351564117698 -0.60821135016614924 -0.19107861898293532 0.30408052989164874 
-0.7010592985842754 0.045939481383768604 0.45409568558174085 0.12530454650881809 
-0.31652985292002139 0.24898867110619025 0 0 
0.10366872476821987 0.21588817196072632 0 -0.25835587394614618 
-0.31652985292002139 0.24898867110619025 0 0 
-0.31652985292002139 0.24898867110619025 0 0 
-0.31652985292002139 0.24898867110619025 0 0 
-0.33991757559353714 0.18801631543269792 -0.020764898116429314 0.027747043021319168 
0 0.03996973078698586 0 -0.11105070161759314 
-0.042139679822590814 0.12383057780834283 -0.18944822556902624 -0.11296445502566779 
0 0.03996973078698586 0 -0.11105070161759314 
0 0.03996973078698586 0 -0.11105070161759314 
0 0.03996973078698586 0 -0.11105070161759314 
0 0.03996973078698586 0 -0.11105070161759314 
0.28020537393519918 -0.23022255007642906 0 -0.15933197423704074 
-0.120967969941584 0.096351970605092221 0 -0.00053556171600239164 
-0.11986340240840382 0.19435461628441358 0.37974917283853798 -0.23607786974447525 
-0.078837891152012035 -0.032569270527868469 0.30396218641839651 0.13183478181235439 
0.19691768920783681 -0.10354268261747096 -0.10758514968845642 -0.092608121382671701 
-0.120967969941584 0.096351970605092208 0 -0.00053556171600238817 
-0.14233322466207091 -0.15347609524617972 0.28114491857542678 0.27444799190758562 
-0.17596360150190141 0.12415037260471468 0.17429045774702412 -0.23477634302612255 
0.049034783153515032 -0.0063765781495335738 0 0 
-0.22574576706601626 0.23557635646870628 0 0 
-0.22574576706601626 0.23557635646870628 0 0 
-0.23409044753361988 0.037727221891064353 0 0.24980508522576558 
-0.35381677570243331 0.35521564811931489 0 0.1227032671250889 
-0.42737383959586611 -0.25889771391643585 -0.080747421789253246 0.62781176289754859 
-0.21368691979793306 0 0 0.28433496108242823 
-0.2819977441723982 6.9388939039072284e-18 0 0.28433496108242823 
-0.21368691979793306 0 0 0.28433496108242823 
-0.4627643497178342 -0.10952863904908611 0.46108906198248251 -0.091155099290616701 
0.2739534441027538 -0.34066547541315212 -0.25845097813910578 0.26857615274684066 
0.31111689129271131 0.13376256896991257 -0.65910592540426727 -0.75378073687624259 
-0.18534199724156841 0.27407085187812852 0.033915014531478806 -0.23636373443568998 
-0.068627060618056332 0.082587629071587371 0.047456008644148118 -0.034572119159060402 
-0.18534199724156841 -0.16753420241285552 0.39026468911857981 -0.063682428895096607 
-0.18534199724156841 -0.16753420241285552 0.39026468911857981 -0.063682428895096607 
-0.18534199724156841 -0.16753420241285552 0.39026468911857976 -0.14049774965676007 
-0.18534199724156841 -0.070560753074378757 0.32154223416550981 -0.063682428895096607 
-0.18534199724156841 -0.16753420241285552 0.39026468911857981 -0.063682428895096607 
-0.038245407191244606 0 0 -0.048972617628464388 
-0.038245407191244606 0 0 -0.048972617628464388 
-0.038245407191244606 0 0 -0.048972617628464388 
-0.16027551357298969 0.13864870260531736 0.32469210781609709 0.0066647984933630722 
0.39442392006938976 -0.096286516096789204 -0.22919755996047017 -0.048972617628464388 
-0.038245407191244606 0 0 -0.048972617628464388 
-0.038245407191244606 0 0 -0.048972617628464388 
-0.038245407191244606 0 0 -0.048972617628464388 
0.0051794886472575803 0.091741501636808387 -0.24521468358298712 0.065159554554376234 
-0.14536617658743417 0.21937555454328997 0 -0.047415166189095539 
0.11015091836465903 0.023073665694863944 0.16959334276774241 -0.01566802407416126 
-0.14536617658743417 0.21937555454328997 0 -0.047415166189095539 
-0.32569511278916874 0.35592080063110776 -0.010823593056849132 0.1819373426032293 
0.051252773136825899 -0.054009373864091534 0.16937203502359091 -0.23507240721188272 
-0.14536617658743417 0.21937555454328997 0 -0.047415166189095539 
-0.14536617658743417 0.21937555454328997 0 -0.047415166189095539 
-0.26763558028686851 0.18638100535638674 0.10591403427344837 -0.069031279310480656 
-0.14536617658743417 0.21937555454328997 0 -0.047415166189095539 
-0.14536617658743417 0.21937555454328997 0 -0.047415166189095539 
-0.20337782885804737 -0.12234760092316581 0.22495629919073246 0.036533696163250869 
0 -0.26054330734257292 -0.028934510944852356 0.21803439726538865 
-0.037017075327028401 -0.038768020225625949 0.13442507206662108 0.07538068091597705 
0 -0.26054330734257292 -0.028934510944852356 0.21803439726538865 
0 -0.26054330734257292 -0.028934510944852356 0.21803439726538865 
-0.38727071823712311 -0.041002793821819747 0.010811728752772207 0.070345684786197904 
-0.14535913886926588 0.0061132363689106227 0.039386663857513791 -0.28748617681226174 
-0.2716607661968074 0.39650632699272526 -0.29418194244986046 0.098338884532791659 
0 0 0 0 
0 0 0 0 
0 0 0 0 
0.23927659527215472 0.025234183451651789 -6.9388939039072284e-18 6.9388939039072284e-18 
-0.026607973181363369 0.26551954959490032 -0.074910677059835701 -0.35613415988172714 
0 0 0 0 
-0.12032683782247218 0.32274610800982861 0 -0.073527747658550802 
-0.47386986101971246 0.53438495194574753 -0.25677211621594609 0.087667220405296994 
0.11935033911503984 0.19043670010296571 -0.082611405141211292 -0.13123518718879756 
-0.15060550669908296 -0.63371411916456699 0 0.64246526682765359 
-0.15060550669908296 -0.63371411916456699 0 0.64246526682765359 
-0.15060550669908296 -0.63371411916456699 0 0.64246526682765359 
0.057087758500214088 0 -0.020771285309427252 -3.4694469519536142e-18 
-0.21390840388090354 -0.68290380830280017 0.82769757758430784 -0.034914781301063555 
0.057087758500214088 -0.025780620811958723 0 0 
0.15714320244750118 -5.2041704279304213e-18 0.17169225238834801 -0.02493156381316047 
0.10452955250032618 -0.19032765199100471 -0.18325585607253617 0.22661565279824716 
0.057087758500214088 0 0 0 
0.50801684024670823 -0.49850616425811356 -0.076866852200381197 -0.33097781323229347 
0.31843030032951392 -0.21106384673399375 -0.19217099181935171 0.2140073614496697 
-0.021722940810431988 -0.17603376230190682 0.024693725664362724 0.016505695660864385 
-0.033514431334813091 0.022386396576567005 0 0.15237615559829232 
-0.10327880799520449 -0.10546029475219086 0 0.23887176204937216 
-0.067381560336219365 -0.10546029475219086 -0.025516169831256007 0.22986561645274659 
0.074808153066490982 -0.11536954032583524 -0.17685583737588145 0.091871274415818438 
-0.29173791097632562 0.29028639785960375 0.15177420131355729 0.21881099243250873 
-0.10327880799520449 -0.10546029475219086 0 0.23887176204937216 
-0.10327880799520449 -0.10546029475219086 0 0.23887176204937216 
-0.10327880799520449 -0.10546029475219086 0 0.23887176204937216 
-0.10327880799520449 -0.10546029475219086 0 0.23887176204937216 
0.10167690299890415 -0.2286775136197477 0 0.2312162854094085 
-0.10327880799520449 -0.10546029475219086 0 0.23887176204937216 
-0.058647001370826332 0.17358163434466142 0 -0.064498393694103859 
-0.058647001370826332 0.17358163434466142 0 -0.064498393694103859 
-0.094835383091738654 0.17369124164399052 -0.02606420468477642 -0.12024100666783921 
0.087635399964109656 0.063535277527708017 0 -0.15357686902606277 
-0.032531214020494241 -0.18620311669707415 0.1218428060161218 0.34243941679190837 
-0.058647001370826332 0.17358163434466142 0 -0.064498393694103859 
-0.058647001370826332 0.17358163434466142 0 -0.064498393694103859 
0 -0.31152476360486725 0 0.20277625785607237 
-0.10422940359580243 0.49295475203634403 0 -0.52532843795951045 
-0.37524524515196622 0.21669847044840354 -0.01555690566955378 -0.02718027615627527 
0 -0.31152476360486725 0 0.20277625785607237 
0 -0.31152476360486725 0 0.20277625785607237 
-0.20369604925800186 -0.029157644355599956 -0.112828348349686 0.4424935036461014 
0 -0.31152476360486725 0 0.20277625785607237 
0.061103379555664895 -0.2095745794092545 -0.066744822010401814 0.027901716403573688 
0 -0.31152476360486725 0 0.20277625785607237 
-0.30637948820823052 0.35610410775280987 -0.047524431610272505 -0.11168269485921262 
-0.095856330133132966 -0.24194798433444042 0.1185846457042469 0.24274597481442181 
-0.44040492163217543 -0.25093232006135796 0.47854469348789053 0.12555686957653539 
0.04850053838303528 -0.16347700453546615 0 0.27551611486026539 
0.10489938198426944 0 0 -0.0058402943646908758 
0.34071287985308407 -0.21245080037704445 0.30304089136267709 -0.15214271561622789 
0.10489938198426944 0 0 -0.0058402943646908758 
0.23450911506102334 -0.057055787105784704 -0.047403279661375475 -0.0058402943646908723 
0.082045527576893984 0.015078744030314534 -0.063246722054720816 -0.087768125543566028 
0.10489938198426944 0 0 -0.0058402943646908758 
0.33707822846948021 -0.14882614564272775 -0.18165600012270658 -0.018619261303861361 
0 0 0 -0.018619261303861361 
0 0 0 -0.018619261303861361 
0.048279146669390413 0.19411758831791387 -0.12923349647349758 -0.065776024019674778 
0 0 0 -0.018619261303861361 
-0.09988060243527494 0.10412071280440713 0 -0.099083949498329091 
0.051080619111451148 0.0033750571333179824 0 -0.099083949498329091 
0.083916835966085956 -0.04659663487855107 -0.01708185665746054 0.016190066391799623 
0.11346768245269798 0.021786382242222714 -0.013936260223636554 -0.18602707321723289 
-0.14796059656515584 -0.13290730511845952 0.062814584896988018 0.35883806666480256 
-0.2517631249725818 0.11238181176192587 -0.11896390418720737 0.17321787245378917 
0.50694473783082405 -0.54565754607296835 -0.11053527321885701 0.074303947699026748 
-0.099880602435274926 0.51097331471301921 -0.082438573387958097 -0.099083949498329091 
-0.15709164121403582 0.31757483746400245 -0.20609428962238824 0.052434205757685412 
0.25490208632349948 0.0062462842099028845 -0.14879017882435877 -0.12656895367880053 
0.24214810001145248 -0.020063035771078208 0.042612163638906929 -0.26066724927484586 
-0.063420462247173098 0.17411964101099489 0 -0.092544459353074385 
-0.063420462247173098 0.17411964101099489 0 -0.092544459353074385 
0.42407985753967975 -0.50328426584488228 -0.061781577058488822 -0.093768152513683964 
-0.12093200422733726 0.23018218480591768 0 -0.012149998611906639 
-0.12093200422733726 0.23018218480591768 0 -0.012149998611906639 
-0.12093200422733726 0.23018218480591768 0 -0.012149998611906639 
-0.12093200422733726 0.23018218480591768 0 -0.012149998611906639 
-0.12093200422733726 0.23018218480591768 0 -0.012149998611906639 
-0.12093200422733726 0.23018218480591768 0 -0.012149998611906639 
-0.10838910327808385 0.23702652934454957 -0.046797606943646583 0 
-0.10838910327808385 0.23702652934454957 -0.046797606943646583 0 
-0.0048792328280486963 0.099017185327950841 -0.046797606943646583 -0.037375849744135915 
-0.10838910327808385 0.23702652934454957 -0.046797606943646583 0 
-0.10838910327808385 0.23702652934454957 -0.046797606943646583 0 
-0.39594062258775448 0.17917641206106716 -0.2278696314889071 0.18003035854897589 
-0.10838910327808385 0.23702652934454957 -0.046797606943646583 0 
-0.040302676178349539 0.098803607067692256 1.3877787807814457e-17 -0.10326112748591543 
-0.040302676178349539 0.098803607067692242 0 -0.010524597845026851 
-0.17065659538567604 0.20497584178181125 -0.057323105273865915 -0.049736922717768264 
-0.17065659538567604 0.20497584178181125 -0.057323105273865915 -0.049736922717768264 
-0.14249938920493022 0.18422213359485645 -0.0076508725577862109 -0.21744428152813008 
0.20633085359994446 -0.19539772816933709 -0.0026764046746282693 -0.089040569766931102 
0.24856563662298248 -0.25335347975334299 0.31349887423966044 -0.1310228759070465 
0.070104493559581885 0.23901397167251803 -0.26480753501812543 0.061938441480350791 
0.30771220330529075 -0.17908511392200954 -0.06295838273418998 -0.18876812008790289 
0.3077122033052907 -0.17908511392200954 0 -0.1204982780620195 
0.26193134007921792 -0.079454559954823006 -0.036542053726047019 -0.049128908959977957 
-0.49418097125049432 0.052584508515559417 0.71852111591558332 -0.28064951070405048 
-0.0603263121617095 -0.48955108594746138 0.55191477196941696 -0.26410785359811817 
0.30221767984489878 0 -0.19217099181935168 0 
0.30221767984489878 0 -0.19217099181935168 0 
0.30804714760347124 0 -0.19217099181935168 -0.050163841782184589 
0.30221767984489878 0 -0.19217099181935168 0 
0.03944294676063137 -0.19609728559082962 0 0 
-0.23428270139669394 0.25726790109533204 -0.022692284760096479 -0.1218515253134573 
0.03944294676063137 -0.19609728559082962 0 0 
-0.16684433619528644 0.1981904078551851 0 0 
-0.10838155765128922 -0.025503332956967911 0 0 
-0.0063195795828066281 0.14828828566103466 -0.075038033624537898 0.11856204921076216 
0.44053300501512987 -0.094315734670227233 -0.07415869267558374 -0.34415213657616678 
-0.16684433619528644 0.1981904078551851 0 0 
-0.19987944806188002 0.32047111757992119 0 0 
-0.16684433619528644 0.1981904078551851 0 0 
-0.018843890503958922 -0.17307197289902629 0.31349887423966044 0 
-0.0094219452519794609 -0.086535986449513144 0.15674943711983022 0 
0.0044118903485725865 -0.15621213626505631 0.31349887423966044 -0.022639164884001146 
-0.3559745357321395 0.91412266780233098 0.15674943711983022 -0.2502393306214109 
-0.0094219452519794609 -0.086535986449513144 0.15674943711983022 0 
-0.0094219452519794609 -0.086535986449513144 0.15674943711983022 0 
-0.0094219452519794609 -0.086535986449513144 0.15674943711983022 0 
-0.0094219452519794609 -0.086535986449513144 0.15674943711983022 0 
0.21114598163571272 -0.14228464419502782 -0.14007433772750619 -0.10127128096375342 
0.41397656791215087 -0.12094580655013433 -0.10884611297793084 -0.20057064639249483 
-0.10967958166836343 0.15247988169912366 0 0 
-0.021150508102168744 0.04755965072282313 0.041560106758630082 0 
-0.021150508102168765 0.072520924292498179 0 0 
0.013102650649493258 0.032215816002944167 -8.6736173798840355e-19 -0.020161543518125307 
-0.021150508102168765 -0.092601391643607783 0.067698919407153599 0 
-0.49053203087436337 0.61913856251320798 0.33472493427504191 -0.2981858473328407 
-0.021150508102168765 0.072520924292498179 0 0 
-0.021150508102168765 0.072520924292498179 0 0 
-0.071292482364686743 0.25675888776503158 -0.20311923621082384 0.098989486994022532 
0.059907624463014314 -0.15898287505083114 0 0.18484926034307114 
-0.021150508102168765 0.072520924292498179 0 0 
0.15183592376540814 -0.3573870633173345 -3.4694469519536142e-18 0.19714719915296822 
0.21231081559733039 -0.41783036311315541 0.14899199158645185 0.0070001563425872151 
0.076576305166612457 -0.56725056081730274 0.078358537517926374 0.12285985563375296 
0 0.11779270767803152 -0.0095150410106309268 0.23514532726313198 
-0.20914682773929547 0.1349655392395635 -0.16225461660874851 0.32277099970306966 
-0.18935664828223614 0.071292685956097945 0.0082452337890024235 0.14280946578958756 
-0.048175042009234982 -0.22508415640906124 0.30941374518292647 -0.30513764829488399 
-0.12827890639112483 -0.17954995059364301 0.26612484333676695 -0.13885376562006382 
0.18970803246497389 -0.30944756754734443 0 0 
-0.1038434610657587 -0.0019612719561439649 0 0.12447396237212988 
0.27329312531180172 -0.21789016382179957 -0.20400445552060692 -0.19276943114452008 
0.18970803246497389 -0.30944756754734443 0 0 
0.18970803246497389 -0.30944756754734443 0 0 
-0.11295532757149239 0.095599919503310316 -0.60693176241826186 0.21201007810595598 
0 0.097880048327662922 0 -0.059013400220241201 
0 0.044140737964024589 0 -0.059013400220241187 
0 0.044140737964024589 0 -0.059013400220241187 
0 0.044140737964024589 0 -0.059013400220241187 
0.11322994601269042 -0.030356848353024095 -0.048639823505026616 -0.05901340022024118 
0.30556856225862522 -0.1941826767820731 0 -0.1681227899217716 
0.53422233231754457 -0.33987513375501582 -0.080597650657001155 -0.1681227899217716 
-0.029661812562379528 -0.51661753383658504 -0.31991416777584558 0.52978488910322163 
0.30556856225862522 -0.19418267678207307 0 -0.1681227899217716 
0.073698271592169143 -0.049604180000042457 0 -0.035162648638838084 
0.076777791307325288 0.17515227057502658 -0.15392903803052152 -0.43660670125240264 
-0.025420711331161437 -0.099208360000084914 0.12588666664032203 -0.070325297277676169 
-0.025420711331161437 -0.099208360000084914 0.12588666664032203 -0.070325297277676169 
0.14739654318433829 -0.099208360000084914 0 -0.070325297277676169 
0.073698271592169143 -0.049604180000042457 0 -0.035162648638838084 
-0.40847827887364135 0.15844573882568147 0.68974515328604535 -1.7347234759768071e-18 
-0.33331218145286662 0.32886296859693659 0.51441886783862079 0.072224153945997613 
0.35239795048141898 -0.40711351340704222 0.548560861673417 0.011502006724484329 
-0.2224748293038547 -0.20779154319246457 0.76422392749759649 0 
-0.23524374316850546 -0.0032544486008811262 0.050601374267281507 -0.072691863280761798 
0.13620068922981909 0.15862337738627841 -0.048393582052637725 -0.1274127620779868 
0.074060266975898514 -0.00085734706082991191 -0.064611132318785569 -0.098348436795002464 
0.2515207525038895 -0.15406212210180778 -0.047416300728799571 0 
-0.062327835905604444 0.25755033993491772 0 -0.099091275602931642 
-0.0460607407572221 -0.29715531413956331 0 0.21506311466895237 
-0.0460607407572221 -0.29715531413956331 0 0.21506311466895237 
0.095783079378364694 -0.30244948045806014 -0.013094574137343004 0.25811515804077201 
-0.12521802232835311 -0.28166633593625434 -0.032032767178640391 0.39372707010543118 
0.14396056589234818 -0.33284862885909305 0 0.17318257851321933 
-0.0460607407572221 -0.29715531413956331 0 0.21506311466895237 
-0.18377829901474002 -0.077149136761317821 0 0.21506311466895239 
-0.18220661805229701 0.0069475014048150981 -0.032092189155663836 -0.067009115143925213 
0.0240792492376741 -0.38589346897676347 -0.25402728900192084 0.26893541883197797 
-0.049536644630801006 -0.065371931223443716 -0.11421952265664946 0.10975861288388632 
6.9388939039072284e-18 -0.085683095860248609 -0.030858163772296256 0 
0.43978068349748889 -0.24628314010420843 -0.072235051072630729 -0.21339047784184098 
0.21338420830337204 -0.47498097602043421 0.18776101745372531 0.086165967130513915 
0.031892654560553096 0.055663175008038565 -0.092632636851545477 -0.33170930554423933 
0 0 -0.030858163772296256 0 
0 0.20334624892963216 -0.079398994259194833 -0.017991798031101618 
-0.02242487161519803 0.19790484694033209 -0.033190485748307928 -0.12890243667855228 
0 0.081696084839412125 -0.033190485748307935 0.010316153264002381 
-0.1084414281203686 0.39541065949440335 -0.033190485748307942 -0.19831278677722672 
-0.13687286670135837 0.24228369314282883 -0.033190485748307935 -0.017991798031101625 
-0.017870213982338685 -0.12629728890042316 -0.033190485748307921 0.36937253789746421 
0.14054508937817764 0.07546627054681776 -0.090226747581910266 -0.056881787526587811 
-0.075263541275751175 0.21216698666311271 -0.090226747581910266 -0.082474238818142948 
-0.075263541275751175 0.1879708521421771 -0.090226747581910266 0 
-0.075263541275751175 0.1879708521421771 -0.090226747581910266 0 
-0.075263541275751175 0.1879708521421771 -0.090226747581910266 0 
-0.075263541275751175 0.1879708521421771 -0.090226747581910266 0 
-0.075263541275751175 0.1879708521421771 -0.090226747581910266 0 
0.033305197719216292 0.053946852440148851 -0.077130906861313089 -0.22605240444930211 
-0.075263541275751175 0.1879708521421771 -0.090226747581910266 0 
-0.075263541275751175 0.1879708521421771 -0.090226747581910266 0 
-0.075263541275751175 0.1879708521421771 -0.090226747581910266 -0.027867188536001664 
0.16106446189642057 -0.4425973590332033 0.011393667921419867 0.21032232698454875 
-0.078446220098719224 -0.067907134229113472 0 0.14672818531532608 
0.10214505803357264 -0.080000614258354558 0 0.13974762398001972 
-0.078446220098719224 -0.067907134229113486 0 0.14672818531532608 
-0.078446220098719224 -0.067907134229113486 0 0.14672818531532608 
-0.078446220098719224 -0.067907134229113486 0 0.14672818531532608 
0.56498154741888884 -0.12706423064579897 0 -0.35462013986275881 
-0.12459347257673672 0.573865227514468 -0.52740404771846905 -0.46283277440403786 
0.483643205958044 -0.22151441083489753 -0.11931618332010845 0.055695650257273854 
0.59727655909963662 0.0613613108118439 -0.18968548386129105 -0.37164372618808456 
0.025344181442486818 -0.14962422045124546 -0.089579607443526471 0.34266952052067817 
-0.042288500025613344 0.094369605253367517 -0.39860464111590588 -0.18332859743955224 
-0.28687922709631603 0.010234449542822877 -0.31875091280383472 0.55154778613031552 
-0.04150217022225864 0.3596925088148325 0.021446135216875797 -0.380550724760091 
-0.26726817670641184 0.44498239618425395 0 -0.082639743910126351 
-0.062188084371313859 0.20372461463138647 0 -0.033752016043569519 
0.24329144258235913 -0.34051931735812491 -0.013528827104844031 -0.12627345021223388 
0.10664250768206872 -0.28906134089656227 0.13887960912029765 0.1561585542382877 
-0.097854597384099351 -0.13211765633660127 0 0.24797976897430807 
-0.062188084371313859 0.20372461463138647 0 -0.033752016043569519 
0.07867645104265901 0.20437774278943968 -0.28300109675779395 -0.28650820799935145 
0.0096626460220552712 0.14657721151240596 0 -0.091337121212391445 
-0.27162938581072954 0.25921105307118392 -0.17336065399291692 0.58968955251828881 
-0.12297714435152723 0.16848650927591036 0 0.10596173414756747 
0.055766147001038373 0.42678450804229007 -0.15165163560948258 -0.055879735578787518 
-0.062188084371313845 -0.89707808982736281 0.81447703129320248 -0.033752016043569519 
0.10854603732540165 -0.042125352656608446 -0.04813381244531565 -0.13065595287827439 
0.19002130664957018 -0.035693314719529537 0 -0.0418805361557332 
0.19002130664957018 -0.035693314719529537 0 -0.0418805361557332 
0.19002130664957018 -0.035693314719529537 0 -0.0418805361557332 
0.19002130664957018 -0.035693314719529537 0 -0.0418805361557332 
0.55340518777251047 -0.30499574079155611 -0.028545392495296723 0.035433715011901193 
0.19704597440788735 -0.10083087337560225 0 -0.12003672958646079 
-0.062391550974645035 0.053624068157099469 -0.018589840540476042 0.08578118517569451 
0.1368258092095391 -0.17277790875444943 0 -0.00043480312583851766 
0.19704597440788735 -0.10083087337560225 0 -0.12003672958646079 
0.077594426374783712 -0.10083087337560225 0 -0.12003672958646082 
0.19704597440788735 -0.10083087337560225 0 -0.12003672958646079 
0.19704597440788735 -0.10083087337560225 0 -0.12003672958646079 
0.19704597440788735 -0.10083087337560225 0 -0.12003672958646079 
0.065551239905870307 -0.18610154333401879 -3.4694469519536142e-18 0 
0.20167492008007867 -0.086137754142661921 -0.013634957878123591 -0.091999889798668369 
0.059271550754971258 -0.15369506309825279 -0.17506647010607404 0.34008616966935901 
0.56417716702577714 -0.31487236118369477 -0.39315019046088268 -0.091630234109700615 
-0.18446862033773764 0.20349497826119506 -0.32625812787318437 -0.16498005585575692 
0.12682737378069753 -0.10113468622113242 -0.00041652239547194106 -0.063181788566032321 
0.065551239905870279 -0.10113468622113242 0 0 
0.061276133874827235 -0.051310028866657566 0 -0.063181788566032335 
-0.048404649030707937 -0.19908366561520779 0.080598860486822466 0.068079354567563019 
0.29888689257871587 -0.07248497704762677 0 -0.15306876395724359 
0 -0.051310028866657566 0 0 
-0.33628545145015559 0.25774718250860018 0 0.23950860248905806 
-0.26874499105359134 -1.0408340855860843e-17 0 0.31319934834660534 
0.0074809573890127698 -0.35342096637358406 0 0.35152327562850227 
-0.33628545145015565 0 0 0.47024988391357042 
-0.33628545145015565 0 0 0.47024988391357042 
0.05043882704987504 -0.12646429179947005 0.068680117128253615 -0.041106042814760546 
-0.27497086304601148 0.42979356064914875 -0.097666401911103276 -0.13309486845185389 
-0.095284973256798619 0.21838017919595942 -0.086631231712433213 -0.027658392110351159 
-0.095284973256798619 0.21838017919595942 -0.086631231712433213 -0.027658392110351159 
0.061276133874827221 -0.19888395786424592 0 0.076531961625104922 
-0.15053564804864322 0.073300111854379041 -0.070814611287967677 0.13441354667895469 
0 -0.19888395786424592 0 0.13971375019113708 
0 -0.19888395786424592 -0.0021861646318262116 0.13971375019113708 
0 -0.39776791572849185 0 0.27942750038227415 
0 -0.19888395786424592 0 0.13971375019113708 
-0.038286052372218979 0.09658836751335402 -0.032674472628620777 -0.014195171717885376 
-0.038286052372218979 0.09658836751335402 -0.032674472628620777 -0.014195171717885376 
0 0 0 0 
-0.25646842655501623 0.5426135130949945 -0.36373046537908615 0.30184473598491729 
-0.05296952871120076 0.088836314286608362 0 0 
-0.05296952871120076 0.088836314286608362 0 0 
-0.0031430567297091394 -0.0016495929998121689 -0.013176068676705982 -0.081809999551435544 
-0.05296952871120076 0.088836314286608362 0 0 
-0.05296952871120076 0.088836314286608362 0 0 
-0.05296952871120076 0.088836314286608362 0 0 
-0.13181603212045531 -0.18978288914284711 0 0.39036429123281241 
-0.10716007857341762 -0.11357267063625474 0 0.23071825776510485 
-0.13181603212045531 -0.061568970678704517 0.22672726008927105 -0.055433419850549087 
-0.13181603212045531 -0.049574345948429951 0 0.23071825776510485 
-0.085860955967032027 -0.25613519830557718 -0.044117437419218745 0.44847798717995857 
-0.23128324169928005 -0.30009200978357892 0.17511066764158523 0.2026450801871805 
-0.13181603212045531 -0.049574345948429951 0 0.23071825776510485 
3.4694469519536142e-18 -0.65044482693002581 0.45380616964450426 0.33868238968026676 
0.06273489120375722 -0.049513315716180693 0.23077768361359086 -0.29232557507751245 
-0.1960528217704558 0.42782097263185015 0.38487485051136927 -0.47214215057506759 
-0.053238179037254404 -0.2870836641359229 0.7126942300695368 -0.31155392449581382 
-0.10790497560018242 -0.097022530395412837 0.21376798672928107 -0.012925056161446858 
0.14194482504040296 -0.034118423187766728 -0.040142805812476805 -0.14397109440161676 
0.62833824728990961 -0.35962642396059413 0.52299039185754714 -0.47050238807315847 
0 0.29673814655343828 0 -0.49812795131494375 
0 0 0 0 
0 0 0 0 
0 0 0 0 
0.044444685457840208 -0.088053286140868672 0 0 
0 -0.37256301553369864 0 0.30991427923593101 
0 -0.37256301553369864 0 0.30991427923593101 
-0.093822524333466023 -0.2121200672344265 -0.025722883009243247 0.30991427923593101 
-0.15383803783237282 -0.10438921313377199 0.12223607002687831 0.14104953055844396 
-0.13767412957517838 -0.048089501709858401 0.016531856128867376 0.19996443669072012 
0.20037397813827751 -0.086255496489591771 0 -0.05647208925946396 
0.21733475789477341 -0.22210515400906564 0 0 
0.021259653478837882 -0.048517567465777206 -0.00389892829018978 0.11682915585608135 
0.21733475789477341 -0.22210515400906564 0 0 
0.21733475789477341 -0.22210515400906564 0 0 
0 0 0 -0.032587134053730676 
0.19664669879647889 -0.038423446167187354 -0.080359165667773041 -0.1611290727499271 
0 0 0 -0.032587134053730676 
0 0 0 -0.032587134053730676 
0.37252563606527561 -0.33038344696695465 0 -0.094104474294726279 
0.075568745395420134 0 0 -0.094104474294726279 
-0.11666775596086751 0.28006014567464166 0 -0.11143360737749589 
